{"cost": "CrossEntropyCost", "biases": [[[-0.20594960298689527], [-2.0516168910998824], [-2.615242369385968], [-2.878148332198101], [-3.1728237771106103], [-2.898850614075643], [-4.047673917582131], [-1.6379022141860837], [-3.0532474957609494], [-2.1850627580148347], [-2.755054402039376], [-1.5641276960520876], [-0.7029252048147753], [-2.9939844553270767], [-5.103087807416527], [-1.6919859133253958], [-3.9856024305873934], [-2.948444959430512], [-3.680640093668903], [-2.562718491732271], [-3.9335838971791377], [-2.2759130392762126], [-2.567695576247677], [-4.003767506861524], [-3.0641920168807535], [-1.910919194157983], [-3.383099550176691], [-4.9285424054387255], [-3.4702757344760897], [-2.7939919970625975]], [[0.900445284435053], [-4.857989095410723], [-0.663570560503137]]], "weights": [[[0.22495168046656452, -0.12247459749276401, -0.4361461359885627, 0.5508074304238734, -0.11971102523309006, -0.12090055327959023, 0.19025737834469253, 0.46315286219093404, 0.2708540129325246, 0.06036791578474161, -0.39165284817650026, 0.3240878942126547, -0.5882801988229872, -0.5278327277003215, 0.05142386340015523, 0.31882388009772467, -0.5094119642969829, -0.1948566890698612, -0.20948221875893594, -0.25992188858045717, -0.0703494366713081, 0.9719043270862754, -0.3152735751660162, 0.16370526037400188, 0.5865995230535919, -0.7015546632724559, 0.27882010810653324, 0.09696763327785701, 0.11884697769107669, -0.6903189525414025, -0.024121470060846223, -0.5683212684752349, -0.3010941256283563, 0.23328968311830456, -0.062009094982841635, -0.1935995160346656, -0.167085216424181, 0.15066442344209563, -0.08752368371693237, 0.013408100196133723, -0.7904150888375784, -0.5274317692539965, -0.31157613910777365, -0.5816961963042273, -0.23521692306887415, -1.0487630277459612, -0.4280810422809167, -0.3273841464007109, -0.1635005356037587, 0.037459930077407735, 0.2246760182286534, 0.3598408454543384, 0.3122388608664424, -0.2670579720686754, -0.15750903034339686, -0.13388778723581063, 0.30043438897733726, -0.3060912723526117, 0.1374348801424005, 0.44101828871348275, 0.04258375905511406, 0.03999162035621851, 0.20239906714872338, -0.22118745994937988, -0.03993574669846127, -0.06292193720346607, 0.2852685930324631, 0.5115383733191727, 0.07578343200219811, -0.2634359703013717, -0.8818712266649421, 0.19300942489084918, -0.08460653893623617, -0.1750879971855294, 0.3940993740730159, -0.25750419042090733, -0.11089791469955908, 0.032485189795803227, 0.2431256008556259, -0.4320750837065897, 0.2616603472395554, 0.22713173258966293, -0.12029184316951909, -0.304014205062896, 0.0002493347499818967, 0.1457079925000178, -0.8577417484644538, 0.44231977826258373, 0.41420528914509475, 0.09783596794604436, 0.3607714588142808, 0.06041985525764302, 0.11295592103989775, 0.32282248594108764, -0.16583764445949256, 0.08481961481545033, -0.027880171018611732, 0.4709400332882332, 0.10516905514476955, 0.11297399594615502, -0.10092245380451753, -0.26889705522164176, 0.25947171862853363, 0.33520884259514355, -0.030266219243437045, -0.16742140592808633, -0.02562204482049086, -0.3837714503044186, -0.3179122554903805, 0.7011986208192273, -0.10193010201709382, -0.1741667464649192, -0.4242288622916609, -0.2636647352625815, -0.19025962354495754, 0.047703191257625406, 0.9188672823682841, -0.31078722789193086, 0.5410817106718941, 0.37559769599611875, -0.29322513049170074, -0.6868131846236621, -0.0935969321443574, 0.46063640322727567, -0.025475189332643856, -0.22418896432149743, 0.6305321665036034, -0.11680296924172555, 0.16147862209131414, -0.02016730958980865, -0.1825626393616651, 0.30417099164694267, -0.48634526969526704, 0.05055992360127853, 0.16282322628674287, -0.2257371021931659, 0.13614511806468557, -0.48152302036620237, -0.10914847295604888, 0.13417614143123135, 0.5048092902291298, 0.4115488499518285, -0.7896061996641797, 0.7702833226981319, -0.9807988035444785, -0.5100783965391196, 0.3210983361847074, -0.01493748323603345, 0.47729806570968303, -0.5777661854943654, -0.9062810230469129, 0.3081226240869145, 0.07529538871278905, 0.8354058120731613, 0.8280359917500725, -0.5900219480410993, -0.16019190602837902, 0.1538187774355539, -0.6435174770953863, -0.4359852242360423, 0.2836039270843944, 0.20295746065736917, -0.46587326167320964, 0.7723949410307552, -0.6449431465853644, 0.6498734536857842, -0.9393050190831262, -0.2042693853171727, 0.04955931978468191, -0.48059874586482565, 0.5457952863850027, 0.49193580628033085, 0.47330715557007536, -1.1537535873695048, -0.6514076061486199, -0.3368957595705376, 0.09256586288410389, 0.0017139256737921783, 0.41787232450169987, 0.42143603017602843, -0.24054475318628907, -0.26156050699945776, -0.2760845303331111, -0.27652263327588783, 0.22012197226138597, 0.13927565749315104, 0.4595594394009643, -0.8648951492546505, 0.4491503956327628, -0.44857721874289386, -0.6729229021311591, -0.7190001502021297, -0.17853254891335316, -0.4977296997294475, 0.39346834995591895, 0.31512063551809716, -0.22941264332487984, -0.22868010034319133, -0.24399540346790308, -0.511646025439045, -0.16219568665271297, -1.124434987552207, -2.120492188489122, 0.1549421691153248, -0.09538092346714991, -0.03395964094792965, -2.853845408217809, 0.2243282111399025, -0.19038710749082702, -0.7309427271777688, 1.886954194824212, 0.44905331098026713, -2.0755250046441764, 1.3196527226837353, -2.3261889281295507, 0.7991961619878417, 1.1701976702259171, 0.9434733229226662, -0.051172751866039104, -0.7940097360179643, -0.7731478008321188, -0.36010367644968755, -0.7079837383355208, -0.012654596153700522, -0.3475965333625464, -0.07310819568213721, 1.0079971001288088, 0.4089273440652412, 0.8127259328545838, -0.2878679514216578, -3.0938432499674797, 1.7069506168230948, -1.3237336848613162, -1.219418427845123, -1.6875477571933448, -1.4668857059269478, -0.24431959864414743, 2.4805270274341074, 0.11228500623203153, 1.174514022937166, -1.9401890695218695, 0.8526427463384564, -2.1039026637759064, 0.631808847348922, 0.03601676188961297, -2.8894681414285746, -0.7414000375104361, -3.8859180974529615, 0.6809121176018322, -1.2052434420046882, -3.300101697678856, 0.38621022491771434, 1.642222137795203, -0.06900791908979109, 1.568422896429883, -2.9755849053271883, 1.5805339240244967, -2.3824094901754402, -2.1517455333589237, 1.6747050698608368, 0.12419377791638303, 1.0830854646766928, -1.3689702707702778, 0.5337290929217821, -1.5108480358202572, 0.6499415206337351, -1.8724248702871098, -0.8408367558123676, -0.3970773095796461, 0.2734329086889001, 0.25037808665589817, -0.7880764856704126, 1.5191243286539577, -2.65435490764674, 0.17130200285785457, 1.1119052026301248, 2.006570625955688, 0.2797778026352611, 0.9780422199028789, -1.577581876188598, 0.21111984342678042, -0.39888008395415886, 0.07034339853695316, -2.4317163765645966, 1.013714569160969, -0.577832282131486, -2.303400918451355, -0.08257908592169026, 1.3642561970786518, -1.1166554568883595, -2.0758109685406545, -0.05751146629651686, -0.2545831644016331, -1.1400868651578249, -1.7046088647735593, 0.7656853384333918, -0.02090014804391757, -0.532331023315531, -0.4743320428304491, -0.20042173941221175, 0.7276957451740461, 0.9077533711798822, 1.427517961232598, 0.8488387926389296, 0.2439678929319871, -0.3072871513064981, 1.6921875751387074, -0.013304620667228158, -0.011341996902110293, 0.5489291941017483, -1.7180752805550956, -0.4397497520900916, 1.102769558581954, 0.8966252292667212, -0.04648713127488208, -0.7446715261346779, -0.7530337806361556, 0.23014833758755998, 1.171031880963372, 0.5261109238090972, -0.37497244605629265, 0.8677629699948168, 0.3758361117078006, 0.3871284706202158, 0.8157927157912287, 0.6497343838223862, -0.6085854050392405, -1.0004424837144459, 0.006126666808924576, -0.12880293120351888, 0.9820475235967342, -1.3015122851702714, 1.4522848143396394, -0.8242534087327008, 0.5322663500035251, 0.40773415731586804, 0.023973758443960373, -1.15691723749853, 0.14259333035306737, 0.9394922920108285, 1.0451578588214714, -0.32467319860019056, 1.7526497799152707, -0.32918442773167106, -0.25493878202003367, -0.5642983693666475, -0.3559424103865801, 1.6013807514765244, -0.29096346683741964, 0.11523118097804048, 1.0729828046719945, -0.8025524962317229, 0.20760084888319957, -0.36466000294857237, 0.3937759807842947, 0.24122911186454893, 0.5572608212850823, 1.2360507979210855, 1.930146295978569, -0.5092845537601352, 0.7150417319481656, -1.1737278879243205, -0.0701013221338586, -0.671788673298131, 0.5409299815042933, -0.06651199075094613, 0.6228727701465705, 0.5236279439663042, 1.27584250352366, 0.07460276281729677, -0.6991743442221274, -0.09386351031565207, 0.018660340170972012, 0.17835488682199777, -0.24181284299229217, 0.09730444476816232, 0.04430200603992409, 0.5512838550123309, -1.1957496961862852, -0.8701662156975246, -0.8445835467076881, 1.0202104050075633, 0.03356081894014036, 0.01223964282340713, -0.9782833143795597, 0.5377734634380728, 1.557630105418833, -0.3830163374943564, 0.0768495127425412, -0.006799379808083006, 1.3152480080208797, -0.18550669942706127, 0.1149941018527639, 1.5110714564973526, -0.5097818652987596, -0.43523242556182684, -0.8057392772033336, 0.30651941092543633, -0.3507121202714958, -0.030305114294828975, -0.11129809892045733, 0.016911289010902063, 0.08442443540067662, 0.12870016717077884, 0.4784501912179874, 0.01748641120557209, -0.30163703881016957, -0.48345664972210933, 0.8433789096364566, -0.5448810644406943, -0.2056351043057767, -0.05327391561664162, 0.08419051801017816, 0.20765433545557258, 0.4829652425953899, -0.4852262732962571, -0.19710162503152248, 0.48475396049079306, 0.028397593188746496, 0.11318866217051916, -0.6779361827679881, -0.19593193866286945, -0.6466503555377302, 0.4249571852053833, -0.1352919200733335, -0.5135065033965613, -0.17269164106683355, -0.22861432800361922, -0.6842050228652145, -0.20489754722517936, 0.10398417485265597, -0.2576587872373238, 0.3381771678935899, 0.20218947114016064, 0.23870357995518798, 0.4923021110256082, 0.1380248816645778, -0.5308795477097881, 0.21866570728334425, 0.5411960027974518, -0.039958259993388735, 0.2792152223517382, -0.5358265140335647, -0.2485498146381326, -0.2991324399624943, -0.9420108566491635, 0.1334587924931373, -0.005951789831969749, 0.026353687363933093, 0.37699491210518477, 0.1704494059543436, 0.3772839175803074, 0.2969251953498687, 0.4640479767561318, 0.5708921645885389, 0.0428072377553636, -0.07103834923189674, 0.04787212721475818, -0.330727935557928, -0.052829577647417345, 0.34611670762406765, 0.07813647175482774, -0.004499449554965806, 0.2993179473371703, 0.2886609874102204, 0.5342940124775142, -0.3217077667245202, -0.19871919147458142, -0.217210754460616, -0.5607892112207788, 0.4307338570509562, -0.2892015688748661, -0.46169988199553796, 0.005818787958103455, -0.14939165752867267, -0.1180924757376522, -0.08328611698328828, 0.28334276514939816, -0.24005443519050335, -0.002375622680641445, 0.31458258884530105, 0.03842890113739926, -0.03538436801212113, -0.18056280982848233, -0.050374929520891794, 0.1648779429342129, -0.29088429205560823, -0.22323932318894826, -0.7826930866088353, -0.32039725650516027, -0.4613696069772429, 0.3855244997050911, -0.3924105064672052, -0.11420966453031972, -0.44583716152972797, 0.27202775563668874, -0.4062725390059593, -0.08873956463409385, -0.46639897768332966, 0.02449703038870512, -0.12209323630099486, 0.11586266183180223, 0.061190346895616844, 0.3618623153375088, -0.011645919156232042, 0.07862996508394478, -0.3756236120273905, -0.03530915123510923, 0.49389669780641976, 0.1836004629325213, -0.03238089413524156, 0.21659853633235382, 0.12322306336904791, 0.14415102844442834, -0.3408143028202936, -0.03145154188941683, 0.052389945305526264, 0.022355543594623377, 0.16676029847647064, 0.50730621478177, -0.0713297454894036, 0.40552862149425783, 0.5292896151057791, 0.11484981463761167, -0.04602521768554146, 0.2728218049700372, 0.4687554230328993, 0.1870858916621819, 0.2501659126552787, -0.1696665004216569, 0.5621064255737911, 0.08894075509504076, 0.4720181673176911, 0.16064677368690197, -0.1206789877992642, 0.10209624533616946, -0.0911714977677988, -0.09053037632349169, 0.16811722111396157, -0.004744984931988464, -0.09696086979204738, -0.06960973425467336, 0.665868467835587, 0.3237377305570525, -0.006705737644285908, 0.16464525879570652, 0.14407514575678868, -0.5858778507616236, -0.057418464223065464, 0.09309846642639753, -0.28612358935195575, -0.2351510716892688, 0.09052893796971823, 0.1551285167014769, -0.08659878638469203, -0.21714689967765297, 0.08352788992627153, 0.2019857193383427, -0.020691436811665326, 0.3644304579551633, -0.03728468904907541, -0.43301392150679346, 0.10047107463615804, -0.26005012255004967, 0.14183687490658703, -0.4918853580577229, 0.3307230204942364, -0.0705739879139987, 0.1345706557835641, -0.045950492853602476, -0.23830987295040607, -0.14318265479445452, -0.3186303423871918, 0.1893254811226983, -0.10547753258323812, 0.24727049786528885, 0.033855539756840365, -0.36095945839348825, 0.34274159833773526, -0.11386552396192136, -0.0385915150258571, -0.02380384656972327, 0.10280465165397823, 0.34606355594268995, 0.08925634072900104, -0.011491147014910216, 0.5780931297419836, -0.15620403375715758, 0.06657502653517285, -0.08964211793181096, 0.02682206432722675, 0.33421060326667096, -0.04565971540951359, 0.03629418062328211, 0.10411877722564443, -0.26374090241302284, -0.21351737267929233, -0.21458167229829178, -0.00707009412024517, 0.4288625681829512, -0.014418879632292355, -0.18440288426462356, 0.19535083994655664, 0.18319831401937456, -0.08455362634143998, -0.3259853618845547, -0.0901894408724935, -0.25566603981720964, 0.10402223857424626, 0.3175904497765791, 0.16813525296236762, -0.1873544251937686, -0.14069160187782623, -0.23056330230482006, -0.4926256613247917, 0.07647356054203229, 0.42112699544635707, -0.061745151629960984, 0.34620556617445203, 0.1671514304771669, 0.016582523108593747, 0.4478098625815265, 0.027645708099748815, 0.11740327441934498, -0.37755678938402876, 0.15231678239211383, 0.2625798635650721, -0.14436164238922922, -0.012763803431703493, -0.10139747715647321, 0.34494888883576763, -0.10400313065735386, -0.19335847032354123, 0.5016101611977272, 0.07134728614709053, 0.1849238184625346, 0.35204654196434393, -0.06382120078876818, 0.18533308065383344, 0.2976317601957674, -0.4439674096572146, 0.04740630732500331, -0.3247738692963631, -0.12334361740157976, 0.03373804079811332, 0.03791361393346332, 0.05578193299076284, 0.2775234659742994, -0.33584159428786764, 0.5487943481969956, 0.13176024501797712, 0.36639758766279124, -0.1846661897883124, -0.06078823672525295, 0.32926015130545955, -0.37514902196977085, 0.13983426445338706, 0.11601104090815907, 0.2924706200933377, 0.12272519727348433, -0.02886966954831594, 0.676046472353071, -0.04544600455030426, -0.0356493190356366, 0.043221142231881254, 0.20521863273129387, -0.1372500818129367, 0.22413119841502865, -0.1809643312556069, -0.12439695742846521, 0.08217698880504663, -0.6140168368256693, -0.035953311691915756, -0.019521864321354762, -0.3081311977930372, -0.18322599016564758, -0.012975264483102324, -0.08227304256224727, -0.2844654680481997, -0.6191760445118889, 0.11741401209001524, -0.13002226804253486, -0.341308149365926, 0.09723197705283831, -0.3171458695642298, 0.3796325556746849, -0.08547342605356893, -0.1029540866328235, -0.4390253589312819, -0.020974201529722188, -0.1674767246912772, 0.1548489066148684, 0.4064259774820252, 0.013469774158425107, -0.07908156826153273, 0.20704054604768907, 0.4731958346240534, -0.19658867546055325, -0.15856113153757131, -0.18622309499810857], [0.07681508235545785, 0.07189398095899237, -0.7946640283636532, 0.2513755304441972, -0.21899368052059856, -0.11893939365406701, -0.13181483192436455, -0.012857561630672906, 0.24764974539408804, 0.3667088063903003, -0.1224544561728836, -0.25685701942301, -0.27489982250917394, 0.389421670542024, -0.1489538121215143, -0.07519466942034304, -0.14680341916522202, 0.1481933792652348, -0.7367452288484392, 0.08719132557568252, -0.253748173676894, 0.1794338197033653, 0.47653907396582573, -0.49077131680826247, 0.42138096735765573, 0.020669280053972835, -0.265604844903573, 0.09886864522229191, 0.15249417397987491, -0.38099805681936516, 0.5900525666075471, -0.390820543865901, 0.20613955694714906, -0.17583754689443432, 0.27165130891726585, -0.2352632037346573, 0.6551871848816306, 0.01107925263358532, 0.4590239182040966, 0.44443286178705743, -0.4826155430939053, 0.22551076994822622, 0.19267130903666088, -0.259959517792289, -0.16977733595535113, -0.1507735488379847, 0.299153364396757, -0.31929596439919783, -0.04158395602494617, 0.2674621102333214, -0.4844118306234608, 0.287650681597484, 0.31306101121281066, 0.046719146860905246, -0.6499360259460053, 0.038705601537733135, -0.4325168810638033, 0.38061284802155093, 0.1581285697327803, 0.36408164310694113, 0.4138574509640493, 0.6980029991272539, -0.7454076401172469, 0.5167766168793859, 0.11386467441372264, 0.3880163475906159, 0.06365557579649261, 0.23146196652114057, -0.002880768109725832, -0.4633627251921888, -0.5555395827238268, 0.6019562903255018, -0.1689666633316942, 0.585789929809142, 0.13938969133918985, -0.27304660254730784, 0.3128649751741544, 0.05250514691139254, 0.23029359563110918, 0.29533075136330206, 0.21410922861847828, -0.05150737121428127, 0.4107720555213235, -0.1331323182712701, -0.44121596121747836, 0.256182617886609, -0.4318686354146035, -0.009518342435814566, 0.3359662303321885, -0.692210274185176, 0.686730449198649, -0.17650904628037703, -0.2236802051417845, -0.15823899334254526, -0.4706968386917419, -0.3115885268605653, -0.11268810566089017, -0.06308215027767727, 0.28691038779571404, -0.6251865172868778, -0.16679733406151417, -0.5055019696421418, -0.07676307812007942, 0.37654079751938585, 0.04934333212045089, -0.37826620162338914, -0.7402025851950618, -0.06992175306483098, -0.42661130839697575, -1.2417473424952552, 0.16215559739831406, 0.4476638247944899, -0.409754344747252, 0.044946637193167424, 0.4672184195075064, -0.16825976203379833, -0.6398010456216255, -0.46041372864647556, 0.48150690557276654, 0.13878744671267587, -0.4032385589245811, -0.3622036680442596, 0.21597161142916477, -0.2912765691652695, 0.17207848756130256, -0.33190298178047445, -0.16562842482286516, 0.013883361317272339, -0.0174963437314246, -0.6199449282216701, -0.7894981970683279, 0.30288346524890747, -0.5330134376224895, 0.380675880671006, -0.04826272054669578, -0.6486300941212156, -0.31181194527349826, 0.5132801327707036, -0.7841571277035233, 0.014620081186484469, -0.10321407714616813, -0.461172148529335, 0.42139439939012635, 0.8219021860862851, 0.13786753368358742, 0.2931176217026492, -0.171794910804467, -0.004883170368252199, 0.0873380474135823, -0.2438670353119166, -1.1031886007935359, -0.28850665995171526, 0.3400716460056048, -0.22341419214062214, 0.5278260653043022, 0.3473134027603047, 0.4069290391662042, -0.2268125465565, -0.37125097545439867, 0.036045612464198254, -0.39452492694675007, 0.28624607122896567, 0.15387300099462023, -0.23644519223308522, 0.1196047366678891, 0.04931140745481702, -0.5694537993070161, -0.3203138778857656, -0.3756452098848558, -0.3583631821095746, 0.027648264124028717, 0.4478748421240531, 0.8691985170894969, 0.08905864021715443, -0.1756100057434762, 0.5307076282139195, 0.33675643687356055, -0.7706595534867253, -0.11519415211755854, -0.3781745512372123, -0.3287775186000671, 0.41226144986865926, 0.27108861088242064, -1.1399707464440845, 0.279389648432887, -0.4949986690477443, 0.6119582063315934, -0.030525416301574074, -0.3328464519994932, -0.2939654327597864, -0.09229728301162575, -0.3985976703703271, 1.0323785876212328, -0.041453782945285685, -0.5338548572879477, -0.34033205878135936, -0.9848771986593032, 0.054624701681480724, -0.5808933230127695, -0.4046092320813033, -0.37312984287187956, -0.014695975697790997, 1.6066355105552228, -1.791593313306106, 0.7211885660703681, 1.5026961490959188, 1.3793426181801811, 0.266859327354705, -0.42899833712728247, -0.44062188751734066, -0.5310244494629991, 1.2132708189821182, -0.6432817846998679, -0.767592347874539, 0.5384366763921672, 0.1294149188347932, 0.7227307226432421, 1.4275465876862377, 0.3138117588583759, -0.7052564408413611, -0.4541337717090749, 0.8260216931442327, -0.9533366781284611, -0.9009596568935557, 0.32324865434801486, 0.7334304746407222, -0.15286989213146165, -0.1436246601626268, -0.6868828294386785, 1.2459105385573799, 0.000365348851846366, -0.7813970082729169, 0.6343345400815673, 1.2195825334552644, -1.0477157096015741, -0.35057516482071166, 0.9363797124317019, -1.186548535869089, 0.23224738453532204, 1.2312464532202319, 0.7421640263648019, 0.3387162963502841, 0.05072361008074767, -0.2426063539482345, -0.28898113417034127, 0.5434657409532737, 0.06634541915067203, -1.015130019515975, -0.18378829710338435, 0.5174041840872522, 0.43925613296344046, -0.6503310037988546, 0.2223406364100887, 1.6088748928905894, -0.8030363827226923, -0.6275597244456272, 1.3942897391261193, -0.40156305465095987, -1.2424139010815398, 0.29032434397058854, 0.008042878959153394, 1.6011668911892132, -1.575470589597932, 0.12888459487045525, -0.6593447755469889, 0.6515896895772575, 1.153760354108841, -0.3548430007213903, 2.0575756166291943, 1.0556152456775232, -0.4877856971733953, -0.011283287648285756, -1.0749954986717234, -1.849988717250114, 0.3528181096198496, -0.05581373008139182, -1.5650553023030023, 0.5108260898071182, 0.7012935544256701, -0.15975999124217927, 0.5583761651441408, -0.9523941952265004, 0.40372579461729075, -0.39714691698921983, -0.36722624469034215, -0.2861979078317803, 0.4332120319604968, 1.5541941785625464, 1.1056234993806318, -0.23920685896579252, -1.4511230992255562, -0.5141585033334203, 0.08844178584302859, -0.6464498237168074, 0.9834236620860469, 0.06343395268563136, 1.2295441750938232, 0.06410462880622879, -0.2978199328543173, -0.5234506477949561, 0.18332163002683438, -0.24708495606499128, 0.34921945362518503, -2.3746129240764153, 0.5087066987987109, 1.0217165643188046, 0.45588191603053935, -0.18461732528302233, 0.24874574713857175, -0.22410544729791124, 0.012199675212962804, -1.2262554081795436, -0.6704235699250618, -0.3212599749241293, -1.1544302123669976, -0.5297168594777031, 0.5838202228120969, -0.29361848495413795, -0.5411586287475684, 0.2437066882329553, 0.07672838220040322, 0.5550920896850121, -1.1840803187237026, -0.027131916025262066, -0.37016715970423314, 1.1730846644562558, -0.018375255309456447, 0.5405593444441672, 0.034151186048865724, 1.5946841359699282, 0.1396321702038804, 1.1797293513533134, 0.01752235792762419, 0.7099234158986631, -1.5011611899807127, -0.5736428633049429, -0.1822106727780382, -1.650334839609342, 0.7780452786131676, 1.5432670126093118, 0.18887217402390244, -0.29585950968537833, 0.8907034168548702, -0.28123448341982815, -0.8909703762300625, 0.7775886333146931, 0.47239713991263427, -0.22160104718765772, -0.3239931798990517, 0.25901419699466266, -0.733923537963586, -0.31374103838451284, 0.2469248315931932, 0.9950558237079054, -1.115914010449509, 0.14702794112719367, -0.6996851656174806, 0.13485041741132267, -1.1224077559331016, 0.6267765309749107, 0.7500750792560206, 1.0584800568868478, -0.4253624467172741, 0.8062523856049166, 0.35152549548244644, -0.25090048930261355, 0.27154269328021086, -1.396308549537666, 0.472276986177604, 1.7227115161197208, -0.3653273290173613, 0.24153381107021743, 0.46835544267490853, -0.4797717847598059, -0.16340566753954364, 0.12401090359140217, -1.5419155279770764, 1.628602102149135, 0.7946016780982074, -0.35187441880577236, 0.6367773758358197, -0.10567580970705534, 0.1640183727167331, 0.6356937471651135, -0.22762055157286834, -0.08359071137977582, 1.4630806043720013, 0.7931366653245028, 0.982020862426942, 0.2283523300618383, 0.09537957232898023, -0.7479272517279002, -1.214069389464197, -0.09518262993922999, -0.20479877288945464, -0.26030928500423645, 0.4331748481282078, 0.33343656548196493, -0.2925047778921196, -0.2386396922217723, -0.14594751198575145, -0.2648768456061029, -0.2285194683127101, 0.5808511410003547, -0.007092442555683059, -0.8967449613777138, -1.0985843805178606, 0.5933124211875956, 0.007957154056970218, -0.6139101164736492, 0.1310695473189525, -0.1722918746436168, -0.03848085942265038, 0.8809590355360503, -0.3252026574629666, 0.2767052179471461, -0.2210547563576983, 0.102959778677077, 0.6142354784439036, 0.021069244797965406, -0.15542292478061043, -0.030918101949104035, 0.3342859398483238, -0.2938606225979525, -0.49213707418615116, -0.2897122321931595, -0.421138807931293, -0.15637095543565976, 0.20940642767335038, -1.0895134176957662, 0.11827966454370845, -0.038269567249872516, -0.2342899709117004, -0.2523068987340959, 0.3953017809194623, -0.057908863718732675, 0.37232810658537596, 0.2593074670785411, -0.25841319214656394, 0.023016517667213243, 0.24138176004447276, -0.5251991676100786, -0.6966878703902761, -0.21263123463955058, 0.5912032012299404, -0.3198311555418351, -0.23766395496063486, -0.789092791016086, 0.5956802680762556, 0.2660287215832176, 0.46091388065536454, -0.35026254708130666, 0.36193937417282174, -0.21483407416583153, 0.8913929535624502, -0.153214278121686, 0.7661854586195396, -0.20529357940660353, 0.1397382903031112, 0.7334191058114732, -0.5509955598425111, -0.34311053329685975, -0.37421444820557725, -0.6556356009159285, 0.4362837756935131, 0.3534169172985524, -0.043385775006174694, 0.027698909551953227, -0.3506176134073395, -0.4553414472201969, 0.3300154340451614, -0.2605645756460663, 0.16994614371632702, -0.4170513639697244, 0.3409517903054916, -0.11446481727093834, -0.28166388909041556, -0.715967612260087, -0.2970597414351572, 0.30539119456023656, -0.8452513115233494, 0.2508079080071955, -0.008313294338239978, -0.43049638495835973, 0.0480962629361513, 0.27350864230747424, -0.6599667498888026, -0.17940096449190285, -0.4757891097836005, -0.06017804596007239, -0.09094059373270585, 0.32607250822650763, 0.339581002014576, -0.2038102595638366, -0.18124498258193183, 0.14369729561836264, -0.4923241938929007, -0.3412297448834973, 0.15788470447040084, -0.008178113618936375, -0.2403216650649737, 0.16788539613083953, 0.1820461318846211, 0.26012659407086886, -0.8935227079589984, -0.249922958569672, -0.34727527507631745, 0.059143619141456015, -0.009831452574534213, 0.010302229901052742, -0.24206657419308697, -0.41577095211792275, 0.16333912228585742, 0.35644418107023657, 0.16549079334248198, 0.2038565664787426, 0.062217136276162203, 0.6145809611096303, -0.20508589281242987, 0.5243914417465808, 0.3282883146480095, -0.683854466681915, 0.2510162857394331, 0.24174510586942888, 0.3276615019522542, 0.2372182799437211, 0.32587081860267664, -0.4111435980608755, -0.17230749892230035, -0.4504628322408788, 0.012725155651874322, -0.1599967729043186, -0.4691219581391883, -0.3990698692415276, 0.257851981758957, -0.0420545329660302, 0.09594973781630799, -0.10793833394186414, 0.02498012210651725, 0.7076331134556085, -0.28305992637536903, 0.11520169524543628, -0.009990527549416013, 0.24045132148763046, 0.06643826103580032, -0.5774897477974207, 0.0028209592847405953, 0.01731443127422273, 0.10374715495995648, 0.08616959856318673, 0.15078635950343786, 0.10040225853776667, -0.14360906951312968, 0.2508951884670153, -0.7545805093583703, -0.10647330762027449, -0.009833712033096203, -0.6345855873955313, -0.3567296011477396, -0.15102184816469097, 0.0011383348190607658, -0.5376781197026779, -0.3967993346086475, -0.5308615130692629, -0.5458148710272684, -0.12211598113679674, 0.30080810787886575, -0.3293832708416572, 0.21627304312285955, 0.24672467957753222, -0.1517900518564804, -0.11740442276839924, -0.06776967651697001, 0.05053145637784996, -0.20589300973337826, 0.16558925798991325, -0.10738189915342711, 0.10877373048983625, -0.09026128866587342, -0.21839830805907978, -0.6223236304667523, -0.12571547294876342, 0.7298278874508998, 0.2106640167731971, -0.08590965605302782, 0.1255516001597567, -0.3153662697461388, 0.3333896378336542, 0.26697824515747876, 0.5110290895500968, -0.06815910176623374, 0.17977759399122156, 0.3224436032962444, 0.054868009414025906, 0.0591584248674304, -0.5473661924540494, -0.6834287722275262, -0.14306737708546216, 0.04279199708793566, -0.031991179139382216, -0.30653953210369106, 0.023855478615875107, 0.5875419642077667, 0.38145592045576693, 0.1403180174827842, 0.3224850191827736, -0.1378843396619345, -0.3654063735782783, -0.3837779995930513, -0.21678162316963462, 0.00852123747208349, -0.31374362306059567, 0.02640241750343839, -0.05946490449060288, -0.5528721411542753, 0.3018890601151571, -0.0330319529285866, 0.0968817447552218, 0.1607364288754121, -0.062147906150139424, 0.1607324482363122, -0.020144429273137098, 0.43589193296134593, 0.43474091068964593, 0.057934670121190274, -0.7625430262968135, -0.22782921061727593, -0.09052795881679647, -0.29627233485316096, -0.00655477316260331, 0.07674394424087971, 0.38984691877280736, 0.301302282622812, -0.1685256148327192, -0.20537721682871235, -0.04214377053213291, -0.02143333484052228, 0.13290260133351475, -0.08505743128920006, 0.1519678956795832, 0.18122656067695372, -0.06435690062956902, -0.3340412757052518, 0.0013311554937788606, 0.24862249272500736, 0.05394877152043125, 0.06891391722476187, -0.42352682047427487, 0.18718556905939093, 0.293232828247874, -0.21535004797432988, -0.02539543473690936, 0.7542915939728039, -0.5536939420043298, 0.2337159062909683, 0.07096898213171769, -0.03504006945535818, -0.04752430071254581, -0.2210080258716031, 0.7588740192002525, -0.694631242132032, 0.12367400271033249, -0.3743429340223516, 0.017009187304995153, 0.17172292985277146, -0.18037981865831854, -0.158167751157501, 0.0219734451044025, -0.3783240906331672, 0.3049633646381566, 0.26884257187742266, 0.19419070315894443, 0.15270846585895473, -0.5448619156276809, 0.13693302552611178, -0.3148345538719929, -0.09047421407708775, -0.26797304567026914, -0.40161874941982384, -0.2660568567542832, -0.23810051818786074, -0.2574204566428627, 0.37647361080190717, 0.10805248622739035, 0.46817377279098527, 0.0360215649739256, -0.3338711628022151, 0.22257557205030487, -0.16554327147075376, -0.5611034914826767, -0.036437689423768245, -0.3189812044947378, -0.3027982573898577, 0.13464928045842556, 0.4721929633410297, -0.029279438996650035, -0.08302345405033912, 0.12660765268088187, 0.3211034391131488, 0.575910089699876], [-0.00016322612821081941, -0.014769208349966634, -0.007890177094856385, 0.00043695764696434573, -0.014325554723608351, -0.0047805669685787935, -0.005982124328879169, -0.002988144085214155, 0.005498619311630549, -0.002492026235827702, 0.002196341931350138, 0.006783211536285064, -0.005933096011287944, 0.0047598449370323745, -0.005555553297073011, -0.010086093999458062, -0.0007148937764783651, -0.003946242411175362, 0.0023270998490729396, -0.0015458868711738872, -0.001651826259535163, 0.004408803569133869, 0.005545868262188836, -0.001240422427748334, -0.004381857945916263, 0.008214932169004192, 0.0013889986173354404, -0.0035734449454646335, 0.0008465801100403786, 0.010306940927782284, -0.01565921361783677, 0.003185291436306815, -0.0123740324642612, 0.0003891711672339463, 0.0047442727750649, -0.015454256662735215, -0.0015215033901422982, 0.00533992342803049, 0.005739312494790528, -0.00010351037880548626, -0.007802196767744072, 0.00557595776518745, 0.005776646009385992, -0.006950469748894052, 0.004097321870204877, 0.003024451558572435, -0.0013181219805119034, -0.008685017274300077, -0.001007477632127688, -0.014923443881731287, -0.014476237306440834, -0.0024465048765813283, 0.005987426980846908, 0.012184165199976357, 0.01082988229936777, -0.004599280392158872, 0.010964347224099938, -0.013225362268535358, -0.0043039855644676625, 0.007607763388507259, 0.006225356403316687, -0.01256403039254462, -0.007466614230576513, -0.0014673696571550455, -0.0013492120546643514, 0.008293553853750859, 0.007996000898192555, 0.0053765022592938425, 0.007013046549041908, 0.002720731573978183, 0.006847987261390108, 0.006952526429904587, 0.002121151902594132, -0.002006629004891253, 0.00041541810833860076, -0.0026083218983858633, 0.0038265853000279183, 0.0019129900385827247, 0.007504551894169218, -0.009570924538397984, 0.0057036512853495406, 0.0014929412284126187, -0.012209007560267791, -0.01191351123862981, 0.0068236763165615815, -0.001436547789937911, -0.01402916273101416, 0.006528283314909195, -0.0021869646910824703, -0.004008525931912479, 0.0014978022727607976, 0.0045257475091076025, -0.006524783244332896, -0.0027286574237667892, 0.002146486294810998, 0.004486189108651706, -0.006873150418102163, 0.010703323741480033, 0.0027102385421442937, -0.002836361058604397, -0.002636151146874604, -0.014901265519448618, -0.003956741823158043, 0.00320849260729334, 0.004501374707568427, 0.0018717289685493909, -0.004152113922488625, -0.0011777458832680598, 0.0065884726798839995, -0.01408069904094378, 0.0041327958961198015, -0.00528379053056999, -0.0018624290526566886, -0.004402755273720962, -0.0011402876163404377, -0.007408737241922825, 0.001275238297896957, -0.007278847943857647, 0.02188871078446097, -0.00010290214051278457, 0.0024383803195976053, -0.00836425674176942, -0.00031058104441870974, -0.007475323215617422, -0.01975233192712853, -0.007911516641729293, 0.006641748833172126, 0.004574357708086005, 0.0021862079827454227, -0.0008557580901109367, -0.010663147499723009, 0.014015883268720997, -0.008517635792059443, 0.00878474184394419, -0.005140431736808428, -0.006662696483098231, -0.004412215506956272, -0.0015660431174398747, 0.017093018524528592, -0.005295233178546507, -0.011571353996835697, -0.005232990445272415, 0.0034721727032617096, 0.004227442636872959, 0.025441260525329367, 0.011841326118767759, 0.010402597843000946, -0.011279294743841078, 0.005548143408522138, -0.004831469862392219, 0.004610027473278966, -0.007457057352232108, 0.01322277728094843, 0.007093762599452249, 0.011433493625707414, 0.0029466580512822137, 0.013626448539871546, 0.008188622402097168, -0.0030883055620495813, 0.01390576557690641, 0.00716773411878704, 0.000986006885163633, -0.021242401672742016, 0.005723887185108665, 0.015943172078750834, -0.00859571582989477, 0.0011078169202725743, 0.006976323448267314, -0.004122817635325812, 0.011885021647649128, 0.004921495989570075, 0.009398852840456176, 0.011100245239829129, -0.006702892588721753, 0.008434931189852241, 0.003508782545918745, 0.00465281312552106, 0.000776194406346532, 0.0008163065905677888, 0.006128734966871113, -0.005392895027479258, 0.008365389635335634, -0.006205661904747352, -0.003999759278657192, 0.006494583539474331, 0.005459762442239526, -0.008983981398594012, -0.013363743599706834, -0.009150682306018015, 0.007343529059705806, -0.0015645236068771277, 0.005705471695693798, 0.000981376345981945, -0.013494662618762103, 0.005662249435165519, 0.00771823591567002, -0.014736253874218093, 0.003565127251087116, 0.0058131702347494416, -0.0058015966858082834, -0.006135918587700838, -0.03242475346474049, -0.029978187632449263, -0.0039032749165430073, -0.011791883176290019, -0.02835529988633445, -0.006126031004279031, -0.004626845651165309, 0.010550674222083008, -0.019408364464361335, -0.009688965928925515, -0.005138518836984924, -0.0011286753905165074, 0.01896378633855359, -0.029007587399238626, -0.00431759540375253, 0.016736951934106306, 0.0020329038588100578, 0.0015483544649995884, 0.001218262528014279, 0.011236083160173037, -0.0018587269378421154, 0.012031014553152336, -0.0030391787072813997, -0.0056735231196897665, 0.024063608670770467, -0.00014608571977037566, -0.019108141640287235, 0.006665747545000147, 0.01649428285518034, -0.03388134448055883, 0.015502073649615623, -0.0015760606414473998, 0.0020631718354476632, 0.003050178502064702, -0.026956939399088133, -0.018633311262073918, 0.019050184537959546, 0.012300818932651392, 0.0046623224515803235, -0.021688491259449376, -0.010198530136047951, -0.002321995483215572, 0.008786343781084541, 0.015276698584877015, 0.010326054774230351, 0.012786871200707426, -0.02104351648878006, -0.012212741319551215, -0.020823135513431724, -0.032018675030312464, -0.016751337630331695, 0.03063719965064175, 0.006046749918785943, 0.00024777955432054763, -0.009395505082366553, 0.04625704033999457, -0.008097003358438193, 0.0006350712764894413, 0.01157415253661897, 0.005362692266508371, -0.0184578967808053, -0.016734532182082023, 0.0021579829582861546, 0.00651776050665372, -0.008559525616977318, -0.003395428686517645, -0.0016582363267909554, 0.0023787661830962804, 0.00235536878198621, 0.017230948941169975, 0.010450658729098242, 0.0025407769689015595, 0.003789120021390984, 0.010559690290971662, 0.00954568355021989, 0.006239155264201661, 0.0007781449111241149, 0.01228086832805878, -0.003599385361261409, -0.008784632322979545, 0.010878394537327819, 0.010303829452777429, -0.008602816670607537, 0.023812653208806496, 0.015008698632824505, -0.02666643450137665, 0.0019352634412838582, -0.002441993111465234, 0.008275874130041173, 0.005839657861479403, 0.009127614786259635, -0.01827916466866688, 0.003218691196409178, -0.00993661007695001, -0.010187784038048658, -0.001090060449628337, -0.009202156368675194, 0.013657561440317415, -0.024101564223170172, -0.015018913558013032, -0.0018656590711209034, -0.021274145374586877, -0.00018084193190699008, -0.018799429677675075, -0.02922011898605947, -0.009518544501611916, 0.003776163583079807, 0.0010164807537657284, -0.011092884221491205, -0.008373216700643194, 0.02319490124216663, -0.0011856518315443436, 0.020301604944905256, -0.019603644121231917, 0.012702392838463689, 0.002704816276679365, 0.0023413260999880594, 0.017048699271502703, -0.009713443695541822, -0.0077728411793443804, -0.0019597836791347242, -0.0022157448650948455, 0.00503244986491701, 0.006800745469442423, 0.02131203474454999, -0.011862864994692288, -0.002035273457977769, -0.00033549458333984267, 0.013863173782658307, -0.021707934838370756, -0.006946432100828175, 0.006476685357699533, 0.006237994661425098, 0.0012426520102046766, -0.014315887785878334, 0.011715856162793163, 0.01348104548746594, -0.011427083087102378, 0.010713011879136546, 0.0060916183977773085, 0.012141199498324453, 0.006842666065080452, 0.013882630108290312, -0.000501728048257931, -0.0005004710652158554, -0.013333109451072252, -0.030113334558013616, 0.00031595692852376373, -0.024261309217120972, -0.023491500488480706, -0.00668224605888672, 0.0018117989418814347, 0.0015359282345929967, -0.0006109666817912769, -0.009633445228418278, 0.015947154163347608, -0.00453599145918412, -0.0011430761176069223, 0.030268181169210186, -0.014977897616517206, 0.002884794750009103, -0.0028512477550696165, -0.007288332253352246, 0.014413087690791882, -0.0024044487505013113, -0.005517701155500455, 0.005088209679282471, 0.02019279408801514, 0.001117830270027505, 0.00552165020049847, 0.0010914490896755124, -0.0056728134153096075, -0.001587179014883371, 0.00415046478909769, -0.017630413235813786, 0.007028553810688875, -0.006041514617606863, -0.00011870506883654262, -0.005216490163263642, -0.010667151642730436, -0.018707902715004544, 0.0011607209601468822, -0.013961481711798411, -0.008367155047287677, -0.01785166799102819, -0.008330709368191358, 0.007634291002793646, -0.006636956379186364, 7.786614051443199e-05, -0.00722944124636497, 0.002693368107217006, -0.00847119908111568, -0.009088208828549892, -0.007117810041245105, -0.003894710378063133, -0.011180505373934165, -0.003947447219208816, -0.016426492029005493, -0.004084835799246264, -0.009531855455045415, -0.03612888177117113, 0.017286325961035996, -0.006596141912217176, 0.005796862091953157, -0.004365140191362677, 0.01009368924130661, 0.0030725925242965054, 0.010528388942805852, -0.008061218360557591, -0.001819832933969401, -0.006305771593217835, 0.00465464010582868, -0.0032275540600154792, 0.022131488900120653, -0.007015019440990725, -0.0035370451191179732, -0.009779282821199527, 0.020383591423270984, 0.010244092120109257, -0.006114926464155338, -0.010180865700678802, 0.012157562256659727, -0.012145099039610944, -0.00349395243879589, -0.007011638534846342, 0.0015267775253416116, 0.017294859926598113, 0.011115812101849894, -0.008283534117051444, 0.008958947364558158, 0.010601640866221592, -0.029106990624200045, -0.0043171510795974085, -0.004111582866393091, 0.002520175384886992, -0.0202088267659765, -0.0016724341757943456, 0.026376064169801115, -0.02022941711393552, -0.027794877323574156, -0.022534174264074305, 0.003908572001674846, 0.006031110240731936, 0.02395731240761879, 0.009023864692985358, -0.019439206362366023, 0.0005480746894017607, 0.0072531462377104445, -0.005077224821199545, 0.005404230534101869, -0.0161887405881257, 0.02774691161273355, 0.01915217600195356, 0.00945590093673839, 0.019917547416360898, 0.010568359009297352, 0.019051122171535304, 0.0011148518964749308, 0.00123764133992822, 0.01624660441935396, 0.0014872470605542256, -0.017463318419863993, 0.011790505225244855, 0.022349914476274903, 0.0011791099073060623, -0.006513010407926839, -0.00041828155498361966, -0.013277451549174394, 0.007469291757040601, -0.011741491534949751, 0.022862583242618275, -0.00023954873121862354, -0.023284690276852357, 0.0017947098771017326, 0.02007978057264388, -0.014881656974883126, 0.020135339134812417, 0.0017817939697849627, -0.017258129618189618, -0.011440192934235033, 0.0031899887414312705, -0.007704847441023949, -0.008322326076048258, 0.02129825163010343, -0.011811560574024944, -0.0007033495887061708, -0.009426236300982792, -0.009838724171569176, -0.011528593421521894, 0.0016277954722537069, -0.025133506718777395, -0.009101701697952911, -0.013291170920892438, -0.0028861818651816345, 0.020448515693127483, -0.015300134754106775, 0.0018588307492517046, 0.028628123369978543, -0.018365411270159258, 0.0005609659616586409, -0.006982654696649104, -0.004674594116210692, -0.005833900608389685, 0.0037156123145265915, -0.011144305598599611, 0.004529224356617645, 0.0019496778396194754, 0.016015186978037044, 0.004751203633656097, 0.007127654564691995, -0.010951045932783766, -0.001915131808365104, 0.0059002417451409885, 0.009430074639964398, -0.0046056999828787025, -0.013285237949767307, 0.0013357953890853463, 0.014328910835480277, 0.00013285901062149442, 0.0025625752376882294, -0.008766628301624054, 0.01199192650811754, 0.013390429419347035, 0.006862434269312998, -0.003925408715921529, 0.00596374172362107, 0.011312128913012181, 0.0005238409344356347, 0.004184602156718332, -0.007880550765235769, -0.002009385230115068, -0.009571285065361606, -0.00787608846903087, -0.002189959138236578, -0.0008503324065686964, -0.011048150174203072, 0.005181765823222469, 0.006596882597696481, -0.011999140715850913, -0.016888321136777615, -0.015107270100439881, -0.0014171800245251329, 0.0046776772992480325, 0.019219455113480995, -0.007918557700504224, -0.011261208284903028, -0.005009021433726201, 0.009577195453045268, -0.002288868787096178, 0.0063823203363374825, -0.0003985527691643986, 0.01718583196431641, 0.005010996611357619, 0.016400760908344372, 0.01283883604736726, 0.0003181620010986019, 0.005295742542650811, -0.00215919017450417, 0.003050082898419142, 0.010056094526092345, -0.0037265338996851243, -0.02226086087217471, 0.0022267693430257345, 0.00752934787118829, -0.002894089849860346, 0.012323723633154598, 0.015901125086238362, -0.01085691244888376, 0.002813891174854116, -0.0017960996997666006, 0.007675773733060831, -0.005578048437868478, -0.008636681290869879, -0.001461407934272298, 0.015505856020594566, -0.007686691130023402, 0.009163481458390361, -0.008533466942175572, 0.00016363488270759957, 0.009407203593608767, 0.00718434940197592, -0.00763482795196295, 0.002818846439440295, -0.0017078911085335164, -0.0030663639591468786, -0.0033036953586730823, 0.008395982838638941, -0.003767584765737408, -0.0017816624461241101, 0.008236691686436865, -0.0023360717498021313, 0.0014372983161589413, -0.0032209121390573883, 0.002703736724741884, -0.0003195082894058501, -0.006711043379316209, 0.0020936632577757226, 0.013716933405161105, -0.010025142700682686, -0.0017579293512608228, -0.015052528727244647, -0.012442184465471753, -0.0044301749756692176, -0.004366039877234819, -0.005616517105576833, -3.3188126596950165e-06, -0.0035789323354618536, 0.01026560655397036, -0.004369698267301173, -0.0013341036630157427, -0.0052564620064013265, -0.008287159998233594, 0.00797719058052762, 0.0001804823697437212, -0.008578710087576448, -0.0006834252736993441, -0.002052071847653804, 0.004861200064186629, 0.004166121826616461, -0.0006880823164976058, -0.005799838115786383, 0.0020369226148905842, -0.000557476976255086, -0.002853998844910197, 0.0019370137559018247, 0.00671160475864293, 0.010746360620885029, 0.006417387367257832, 0.003040573486406787, -0.0214234758814602, 0.0066372364055924645, -0.008369693682440307, -0.0014360380059052226, -0.012005016845403503, -0.019503121483696876, -0.013450422930577697, 0.008823776810510095, 0.007668318582327146, -0.008884150586333968, -0.004602534202432006, 0.0006408199037893767, -0.0016407626930522797, 0.002957626268991367, 0.018678790242826496, -0.0008814854644962856, -0.01977048894377825, -0.010931654413142188, 0.0020521308051642626, -0.013911619717981666, -0.01646636177103538, -0.002798511356463497, 0.011564127073228214, 0.006534206579586852, 0.009579173018254405, -0.0018488852243466502, 0.0218686447233158, -0.002126468987734027, -0.0075198676705646615, 0.007999984224242801, 0.006701206501505154, -0.002615935320868549, -0.014720600953526229, 0.008118404035169783, 0.0058731315920618156, -0.005680827020598496, -0.007201449212446972, -0.0004884594951008408, 0.0013401926833973103, 0.005469447647438501, 0.0004245320693561252, 0.005369284311117032, 0.009888965886166693, -0.009702909440177643, 0.0024344167051587977, -0.002506010817347848, 0.005136569487782474, 0.008933649114780005, -0.002807196089429529, -0.008740775532589666, -0.00022090320892887135, 0.00943700109874066, -0.004142555257054039, -0.0018419902591400531, 0.00974557789196926, -0.00575065937758927, -0.008773066952820575, -0.003813893757000213, -0.006272559910755182, 0.006882807992757435, 0.004916971659902123, 0.0004570861902526076, -0.007720818436057525, 0.0004216379133179034, -0.0022558131650530075, 0.009629893078535168, -0.009211687093200093, -0.00416533343577501, 0.005878064134297797, -0.005047992489668768], [-0.0025445848727645762, -0.006211103129870983, -0.0073547439432192566, 0.0033321489561501812, 0.0009825389969901227, -0.003213007818384269, -0.00497132868060563, -0.0017261899662374858, 0.008887473988690222, 0.001189565428483904, 0.003103374148302937, 0.00029544604313444143, -0.011007848456963861, 0.003887918333785271, -0.007482638767787179, -0.007025694684389516, 0.004971399353666099, -0.0034532370250198135, 0.0028876856091185404, -0.001513916498308234, -0.00024827278754461547, -0.0029763128516572964, 0.0006884682374340993, 0.0027143966887542103, 0.0013615594737504384, 0.0021439997110833005, 0.005369479498037592, 0.0027887206445369483, 0.01210198954199172, 0.004432056771201106, -0.002534673099110655, 0.003409449788204466, -0.0030824084742160484, 0.00028446013181827396, -0.008053078951407638, -0.01419212853769844, -0.012124982419757452, 0.009076444673687619, 0.003996750213580053, 0.0020240091431993168, -0.009424897001306762, 0.005751328848876174, -0.0030689786613081306, 0.004542072587455721, 0.0005560194911104796, -0.007656773858545864, -0.012978070756005705, -0.007138857282693842, -0.00248814440171149, -0.0056379966196141535, -0.014407474309304953, 0.0008711370471482052, 0.0068925630335824935, -0.0027411098431042074, -0.000434390710790549, -0.011470466859691907, 0.01387662975665621, -0.0062012260127922905, -0.0017051538026634722, 0.005942681559916773, -0.004279069751399019, -0.0006232171357377538, -0.012687105921690362, 0.00331151710737555, 0.00306199486037102, 0.003633603242505914, 0.004247227728753263, -0.0011755868730938608, 0.0018960778855301721, 0.00576085050166987, -0.007263488554860144, 0.0001355084790344982, 0.0025589812313263046, -0.0083831345261619, 0.007696946178649332, 0.0032242134436894143, 0.0024463336218996912, 0.0038002271725574637, -0.003581353405547338, -0.009770712547947556, 0.0044401863684439815, 0.0010635075519003965, -0.0046926927594514965, -0.010878530727736781, 0.002550640604067973, -0.009520197881633548, -0.00834859984863625, 0.0023103877288168074, -0.00174528986878327, -0.0018249827432560554, 2.9310843261279108e-05, -0.0015562817379221232, -0.00862317987961209, -0.0013156437757753793, -0.0017935067313051163, 0.006214922862872106, -0.008350335799391359, -0.0023606195401778434, 0.004566243105264034, 0.0016557861109316493, -0.000709824249193185, -0.00838023507255545, -0.0010339885316221619, 0.010973181412176198, 0.0033348042065863242, -0.002086806927494641, -0.008905489748457004, 0.002151751113513483, 0.01725317737818344, -0.006751291537109705, 0.010377193878869177, -0.004733897863198785, -0.0017288379592956913, -0.0025475742843964334, 0.0023267495275134634, -0.0025199505989903183, 0.0047509782272831475, -0.007863003772924756, 0.013166094531899219, 0.004533928772080459, 0.005575219586521613, -0.012234041166506296, 0.0006933265216235474, 0.007594629100792414, -0.008076892414824233, -0.00459737352653415, 0.006821616833168615, 0.00923898941135096, 0.002554632013673895, -0.00657865530349768, -0.007023585612427013, 0.011865596448164055, -0.007513252227115359, -0.0024165621354411844, 0.002013157869096163, 0.00022745264109723783, 0.0001931379640284333, 0.006430009397750334, 0.013806358473838168, -0.00017469045285174834, -0.014038863251749847, -0.004939215207642023, -0.004990150178770876, 0.006704409811176539, 0.015320988069183332, -0.004864955358858297, -0.011677199123191035, -0.007810151155593782, 0.004681075139327496, -0.0027001425384030474, -0.005411350352426907, -0.003773998316992427, 0.008578878524612926, 0.006372195827764794, 0.00694638013228406, 0.009260138234168217, 0.012014736775246922, 0.0014823482106644617, -0.0070442465385251165, 0.0020450483857703196, -0.0005858745064419763, 0.004080213626950791, -0.017605013757828414, 0.001844363909344024, 0.0077058607201812524, -0.002185357716693539, 0.0041153449461932235, -0.007418335811687311, -0.012210066936017483, 0.0005988313336000543, -0.009231996757764507, 0.003953022062185459, 0.008813225619339629, -0.006275387571723127, 0.008675202003010458, 0.0016603029719601669, 0.006991730934549569, 0.0021184475785213652, -0.0048029096498125555, -0.005941185994162687, 0.002923137900345594, -0.0007712965170312737, -0.004272718228446512, -0.0073351339248809355, 0.00034323180195867313, -0.006890456296586867, -0.0032315447877220684, -0.006503375984421887, -0.007821584685046916, -0.0012647515291393616, 0.007311001540799966, -0.0027640115165781577, -0.0016776159012765175, -0.0067709362827781385, -0.004064045733948272, 0.008343377266025596, -0.004065704309704741, -0.0021605797863377264, 0.004224397239977135, -0.0023326730995426445, -0.003525741348032889, -0.012253359605473418, -0.0017643045840843412, -3.4722766451415062e-06, 0.0006081939639662904, -0.012088498611368776, 0.0023731212519147254, 0.006720748717008239, 0.009695331181349603, -0.011540081246701375, -0.0035798145794270235, -0.00027891274018711107, -0.008142391651725402, 0.004262309757584371, 0.0004941810546650592, -0.008545558970186546, 0.0059131475504021124, -0.0058558079188592415, 0.009017281320274203, 0.0037268020176758144, 0.0003532835886869608, -0.009353572410163062, 0.007680926295899174, 0.008600008324294712, 0.0023143108376220884, 0.004467842993528512, 0.00904396343434551, 0.005656189817832225, 0.00835413960855564, 0.0005141152834957427, -0.012027753519396533, 0.0072207878190287825, -0.002679664136113066, -0.008730532892313361, 0.0021023963791974537, -0.009375646205327534, -0.014917608025441497, 0.008634850605973778, 0.005735219703958068, -0.0028628160294805974, -0.01592626750615724, -0.005668573077623472, -0.008228112668894293, 0.004500860919761663, 0.005317555265610294, 0.0008889663865809692, -0.006048771262439983, -0.009778618021397642, -0.0019128117017092347, 0.003017795052591818, -0.012101047021312043, -0.012738398439452146, 0.01467914158223164, 0.001983574317292905, 0.000767588653806849, -0.000991579206042507, 0.017241436456488655, -0.008684465554698782, -0.003341052586187668, -0.0025431165822198776, 0.0009703108007645509, 0.002538407062267993, -0.008547755698110697, -0.002907384241119531, 0.0062455315931090275, -0.0012115017514462661, -0.007500852436680973, -0.006653512577352681, -0.008409671263371851, -0.0016335682450425565, -0.008334854435807084, 0.008200308017459933, 0.007007143492775111, -0.005908981366674166, 0.009487400232680899, 0.009203237140518699, 0.00227260686023346, -0.000962858016995601, -0.008266105874163805, -0.0049282890291667235, -0.00364137091356908, 0.006796900545632528, -0.0037712024728253817, -0.004999555706641585, 0.009082926888923832, -0.000871030900410588, -0.008562135504536252, -0.006510038707123719, 0.00577134644883338, -0.0030941888583690814, 0.007550404323505981, -0.000986832382608691, -2.492134821483928e-05, -0.0011399636955635012, -0.0004688433349392777, -0.001658383020624106, -0.008026338937290852, -0.002881977259948353, 0.007609560074573543, -0.0065341909199080304, -0.006163793515038505, -0.003258797504603288, -0.007972141315542244, 0.004169152908418106, -0.011506268907418817, -0.006941480688674409, 0.00600710822245578, 0.003694060042690675, 0.011819220966262447, -0.006879812365746801, 0.0003317803438426062, 0.008355806176496805, 0.0004405573025726374, 0.0014668970963075292, -0.00011990173587207068, -0.0011117291535289024, 0.0049850705736743245, 0.0014007095973887246, 0.017335261309025813, 0.00032280121449180453, 0.0015780862822752765, -0.00546213520472204, 0.0026107189966053206, 0.00034286326214731113, -0.0005903881194099937, 0.00205826034284681, 0.004063424829914337, 0.007177846795079131, -0.007217824279172218, -0.005179338501897039, -0.0013335773932489146, -0.0025279218055243038, -0.007111761893856902, 0.006504256004493101, 0.004582634620526694, -0.0008118850011327535, 0.0111994584952356, 0.0008395287973685545, 0.003901226301715983, 3.676819756100621e-05, -0.004340880710885082, -0.00018778174741717834, 0.005282113524496948, -0.0008749635257142651, 0.013964866363606606, -0.0036627523855235354, -0.018103769339610304, -0.0032459105426841978, -0.0011070369989945894, -0.004087112662263621, -0.014296539962339148, -0.00273316766001344, 0.005209331791280057, 0.004382580742718883, 0.004227726905881451, 0.007710393772770928, -1.229938711320139e-05, 0.003199100817216814, 0.002516007714754496, 0.014596795441300867, -0.004697835550994828, 0.0031814149581781337, -0.0012847467865176614, -0.011784357745130767, 0.010608125180105633, -0.007956417993934045, 0.0012275310213960109, 0.013932926287412164, 0.00033853252412056797, -0.006379975715643731, 0.0003280854184924354, 0.004916163330499125, 0.002359588325110294, -0.004711094079958526, 0.011031254350038155, 0.003758793285422146, -0.003712806042562925, -0.0016933070664006292, -0.00935489905197886, -0.006048101409205974, -0.0038295151334164744, -0.000993014201309746, -0.009660690502607679, -0.010794118307158358, 0.004100696694247583, -0.016563829921601922, -0.002054626753487344, -0.005739553870049576, -0.001043180940209573, -0.004691632178678144, 0.006153990567665408, 0.0036907712555999607, -0.004127654388810109, -0.012152905462082586, 0.0042237163531896795, 0.005157527869215021, -0.010989782598990376, -0.00298171131269231, 0.0016144222282395682, 0.006536223411249496, -0.008001626927207508, -0.012175133390487475, 0.002695353728951211, -0.0029931600434291755, 0.005984799712903047, 0.0005587371893265163, 0.0026406966463417593, 0.012571490375716268, 0.004629099198104019, -0.0019448874403569772, 0.0014895210925783325, -0.0030702892485482245, -0.0010682427450158037, -0.0031831984026716325, 0.004357988005251529, -0.0033104239133520097, 0.00120461091574276, -0.002891433411913343, 0.006494710211501845, 0.00646856818492818, 0.004063345961516279, -0.007859380142898187, 0.003318042251989568, 0.0021856446355805826, -0.007445764305689221, -0.0013546820666990075, 0.011896452371087522, 0.0019590387340595403, 0.005478822882955043, 0.006149302687710763, -0.0031665510230559275, 0.006541139129958895, -0.018456141218365866, 0.0034098655350816793, 0.0008751458254468783, -0.006200591287686966, -0.012410390824942653, 0.0029223037340456027, 0.015142547170718555, -0.0039471466301470425, -0.011953738985199932, -0.0054783982844481246, -0.004642568277575148, -0.002040968734734253, 0.013957879461922536, 0.00269312369348709, -0.011003402827700461, -0.012702672004139737, -0.0002642218985815351, -0.006055746386761136, 0.0005726521373918768, -0.004478301511424394, 0.01299251281815455, 0.0019242108181687252, 0.01065950534241607, 0.008082744952467795, 0.014086712489547598, 0.005132865461511683, -0.0026135784342248254, -2.3968434968859282e-05, 0.013135441732597845, -0.004619498158133704, -0.01349263712171589, 0.003328107218875476, 0.010553732055678885, 0.0036703771095555455, -0.0015970975948646584, -4.894692751264439e-05, 0.00350621094370922, -0.00016311974232066501, -0.008787874353926034, 0.0119614385480523, 0.004163592491857733, -0.004141463050586613, 0.00023918498823397252, 0.010237274399613692, -0.004251748477969256, 0.010799084301718503, -0.0018081814062996138, -0.005717098816102882, -0.008246361747747226, -0.0018048594952648864, -0.0036162286048977083, 0.0033883714321952703, 0.004388103619260749, -0.008219334643057774, -0.005344088290107518, 0.000550124268798742, -0.011887673229609567, 0.0051447574575700875, 0.0019056389194733612, -0.015822038685014705, -0.0032061751287637817, 9.838946556422423e-05, -0.006854979809923177, 0.01134769817369348, -0.01218764741640615, -0.0036769279020358397, 0.007854159567256517, -0.005084992624221278, -0.003572139492282287, -0.005349144793906548, -0.0006381983566385387, 0.00049164161345353, -0.0017501417534631911, -0.0023775105145739, 0.0038064699539525964, 0.0038107737478244564, 0.010639207239995863, 0.001124445065127102, 0.005331431529496465, -0.007301326535148435, -0.0035786749817241564, 0.004560178319590023, 0.005953414218962485, -0.008252610688265818, 0.002102131173269666, 0.0027591707025075634, 0.010345445869602966, 0.00048390109374880545, 0.0021339965357446465, -0.007942930712455585, 0.005972653464496167, 0.006850295192288378, -0.0010403740682779293, 2.140440394903835e-06, 0.0003865268262189637, 0.002864701955626011, 0.002253458735898704, 0.002180148601647087, -0.003320826506734757, 0.00305169436659029, -0.012073472575642006, -0.006075500161493729, -0.002788996617761962, 0.0031771099071476842, -0.004046460741649999, 0.0033300451202330585, 0.007069175011701008, -0.0052052208597773335, -0.010200405440430119, -0.005589154891233729, 0.00204766599042273, -7.780906590879329e-05, 0.0069865445447859845, -0.0004214831384396227, -0.006947409780674286, -0.00027331806566480805, 0.005269612188818123, -0.0002499638694547241, 0.002835515845550856, -0.004402429240461194, 0.009053771230382632, 0.002466178722919164, 0.015222194162711795, 0.005672614781656952, 0.008800597786920968, 0.001561961145481817, 0.002223166551229666, -0.005195130422533498, 0.0048065372557653165, 0.002101489422227272, -0.011493953738682334, 0.0017651510533487078, 0.011237982785830557, -0.006734001760858923, 0.002810871345984081, 0.007134924689601732, -0.0029737324058909257, -0.0005075257538565168, -0.005267204350456415, 0.0065879423330755605, 0.002655842196587949, -0.003223248176774793, -0.0014800423424118781, 0.009661140630117731, -0.007023640545956506, 0.002680365522881545, -0.0023807214987995396, -0.0038126725231315277, -0.0002957607037536137, 0.004423723769315755, -0.0031373491240675663, 0.0038541437138797634, 0.003669281622698869, 0.00013262833729990115, -0.0019435922037238497, -0.004541337990507221, -0.008042256526898862, -0.0025265524174769116, 0.007048335148401267, -0.002879322162575622, 0.0012610595448947666, -0.00676095091565118, -0.00011259665482241978, 0.003906502062893568, -0.00624264420613057, 0.00031529468593167434, 0.009806640196171472, -0.006953239425349522, -0.00476950529050672, -0.008742268559331655, -0.011011504611733423, 0.0017160293232999142, -0.006515779293859569, -0.009229966382895383, -0.003914554319567732, 0.0045984338261467975, 0.006261012034620111, -0.007236334317120713, 0.004620076721778931, -0.001360303031100493, -0.004294452697070133, 0.00987489959252334, -0.0005360765832250941, -0.004193206265651045, -0.0007817434720604563, 0.002242796002099463, -0.004239657661671632, 0.004889983862244526, 0.002827830996669648, -0.0034780396027057348, -0.00016366122303544957, 0.004993955728750358, -0.002629360723640198, 0.0055108760933493366, 0.0034378968607414006, 0.0021543400215268157, 0.005059938447036333, 0.008735437446438395, -0.012286036234099294, 0.006459075728354244, -0.004149024408708915, -0.0018929475417754384, -0.0027280332044605595, -0.012833291388173474, -0.005120794503580322, 0.007599516213719188, 0.00553491575879828, -0.003331624227872978, -0.004315063592501158, 0.00031072454726163826, -0.0003941691007593913, 0.0017669896549430272, 0.008577925225093125, 0.0032038932892156278, -0.011713142444924494, -0.010340056011175509, -0.001822986341058108, -0.008720342084852447, -0.011691302834885455, -0.002563078378897342, 0.010736845754242028, 0.0049387262556050155, 0.008747766338793712, -0.000768755529155407, 0.018160658794944832, -0.004736086809996788, -0.004000615850672279, 0.0022238110730879515, 0.0003857184160772931, -0.0020753148720628655, -0.017318142586483353, 0.0032442317600692183, 0.010180241453971377, -0.0010333657295926388, -0.0027774639286183745, -0.0011769041008467744, 0.0009552100271870776, 0.0022500479949277364, 0.003560138329178106, -0.0010631773444480992, 0.005350697368452238, 0.00013220415772303455, -0.0023097894392379915, 0.004122228730381096, 0.005252796103829039, -0.00046431838220891, -0.0035448500506063594, -0.003232412952596776, 0.003120789998629176, 0.0017830536267318467, 0.006008115137417306, -0.005129454542507903, 0.011067750190535512, 0.00224482456904754, -0.008315592631009039, -0.002236597445301616, -0.0036881300331804015, 0.0027493316551624254, 0.0022576538425370498, 0.0006687590327320495, -0.007208148321205974, -0.004791929145905619, -0.005005075362229592, 0.005742712795217618, -0.001532394276620209, -0.003060526396325318, 0.0020388519697596584, -0.0021344460883601134], [-0.002281227666456853, -0.004340081978054776, -0.0013717099446105465, 0.002431172762957437, -0.0009079694506784804, -0.0006526349034461887, -0.002938683659195022, 0.002165428715394921, 0.004406681837908086, -0.001733474896375455, 0.0009836699276189488, -0.0004360529208983509, -0.0033433368920255304, 0.0028779003317629132, -0.0044188300868443576, -0.00277085688358046, 0.0006254591552424073, -0.00012816095683166218, 0.0015550654539113467, -0.0009114126848804302, -0.0013052476084521325, 0.0008272170279665785, -0.00018089143546829212, 0.0013489244823674756, -0.00027953877400708446, 0.0017396863192192902, 0.00021243073716592232, 0.002062731861817171, 0.003930139435861024, 0.004463107314255671, -0.0026181418532836218, 0.0003717484301774123, -0.0036259429730446675, 5.878277081589562e-05, -0.002846092864630489, -0.005520037129914675, -0.00430413112897475, 0.0028214391228686, 0.0010226406325362224, -0.000872391412635791, -0.003855889133096648, 0.0031429462258283597, -0.0002819324013147023, 0.0035365076888870584, 0.0024958136647665135, -0.0029305117059093846, -0.005214072947171567, -0.005411271889914268, -0.00131613858712316, -0.004522321440748642, -0.005065298771958612, -0.00026008593754624974, 0.0033145065066172495, 0.0013952965791515087, 0.0033254642495373072, -0.004603474355420629, 0.006842854753240483, -0.005152150549469886, -0.0012115123230089597, 0.0024774823923857416, -0.0013792402276328094, -0.0030780264528820433, -0.004183014004232998, -0.0006819479148153836, 0.0022712585790089558, 0.003052928919252994, -0.0004085795534739598, 0.001187430651458518, 0.0006030464986562818, 0.0006061490076610359, -0.002227758716206036, 0.0013096888967572917, 0.0014816574132927292, -0.0019149128375696833, 0.003934106808460921, 0.0016761253016672568, 0.0007192588648960283, 0.0019191673402114298, 0.00039889481036203887, -0.004507193615720151, 0.0037454069904709186, 0.001331567620171055, -0.002596328097554494, -0.0024744155147271014, -3.769065631011592e-05, -0.00398379531437709, -0.004306018016369522, 0.0044200974925620645, -0.0024891063076943024, 0.001521392257593768, 0.0007458214651678018, 0.001769154138369796, -0.005247889643710416, -0.0007047863055537483, -0.0012539580389719432, 0.003658057030739356, -0.003706381516092337, 0.001946936738562075, 0.0027387531458471963, -0.0005124126097202634, -0.005935509742044909, -0.0056875174486902885, -0.0005030989387665841, 0.004807403724317925, 0.0019700173608932538, 0.0003620428339680521, -0.002036302838620643, -0.0018777180668446472, 0.008624341874387082, -0.003268828432969904, 0.004392395134841826, -0.0008200467445586584, -0.00022008064896654518, -0.0004893709038015299, -0.003074412779672691, -0.0008173184628955883, 0.0045846932781779684, -0.0016189159205834559, 0.005754093971169476, 0.001420179096749802, -0.0016490806030946279, -0.006257529427419776, -0.0018125971527558453, 0.0019121612226717375, -0.005119409868209973, -0.0027655690137165065, 0.0019629334910758554, 0.0026464659823673127, 0.003684843886770191, 0.0005050963160854011, -0.004602342316255139, 0.005991916565049611, -0.003778637320503101, -0.000764116493528502, -0.002821652538368451, -0.002641980286785026, -0.0027052041320091897, 0.001470484086413824, 0.006475845158087841, -0.0038652734426454028, -0.004437653695012069, -0.00014382648584566066, -0.0013262549844626748, 0.004684596935607302, 0.009419497242285552, -0.001973395157316637, -0.006900393580790426, -0.006512644006773352, 0.0008869099892900918, -0.0017231032780907873, -0.0012332849858211214, -0.003296062100236171, 0.003650842082569955, 0.0032067819786666544, 0.006111081090992588, -0.0016054303240643354, 0.00672209238656723, -0.0005868860876640864, -0.004141300261065432, 0.0032877090523603454, 0.002082108862321878, 0.0034186692021207885, -0.009665226664851265, 0.0018128207578231718, 0.00468740113706543, 0.0002553324462222437, -0.0013611163179509261, -0.0031609872310227826, -0.002291300351697764, 0.0014588112736619641, -0.003387294234869222, 0.0010384822252331109, 0.005768392864860235, -0.005685014839779793, 0.004658678949267059, 0.001576998822661341, 0.0020590357889439517, 0.0006589572160450772, -0.0016916474595879399, -0.0014354907471817156, -0.0035186161226309614, -0.0010628735515389636, -0.0004831569420138908, -0.002026748985459565, 0.0010816274627903646, -0.001992287443784792, -0.0013125096360912451, -0.004977137270173355, -0.005706041417920578, 0.0011137910881559442, 0.0034721536551270303, -0.001035120605016468, -0.0033495550464377557, -0.003498334862714858, -0.0021290489572142607, 0.004704997003317768, -0.0021207042889258626, -0.0020192301938806285, 0.0016912741249724722, -0.0008594563012177738, -0.0017701454907267267, -0.008118136133050293, -0.0043024328940130694, 0.003419517817581185, 0.00013148378347132967, -0.006326614942136033, 7.069325266669784e-05, 0.0030437345554745017, 0.004960081236692925, -0.004599255494277064, 0.0009735304244485779, 0.002306334643410915, -0.001436887588437405, 0.0014536832664629195, -0.0033338788714318782, -0.00354789967973492, 0.004949211361780981, -0.0018005499708641612, 0.006050769208562749, -0.0002225097997808457, -0.0013326061054812993, -0.0007998699203455457, 0.004143639008458467, 0.003289275716812958, 0.004354232909628187, 0.0023134170958455475, 0.004087208202176999, 0.0005084168645000133, 0.004659415183673295, 0.003285015146209075, -0.006217333416453108, 0.0016037011899069536, -0.0008330539340734, -0.0009424838412583129, -0.0016226938229397068, -0.009657071487719389, -0.0076261914279514955, 0.0005851230249560767, 0.002522928393803058, -0.0026447599213136716, -0.007281590490716065, -0.002163486924827808, -0.0017100136571469404, 0.0027453849977469996, 0.002104749779564448, -0.0009298696957385452, -0.005923434515575504, -0.0043404728434920875, 0.0009607020732002639, -0.0018439260213119967, -0.00650146523789898, -0.004779996725687717, 0.005389626773996009, 4.550306100409208e-06, 0.0013509247831102293, 0.00048651642542423804, 0.00899298145359758, -0.004423174755656807, -0.0031728922101978744, 0.001928655871138552, 0.0012239080457879237, -0.0005253034913720468, -0.004847868914816979, -0.0021010161283125236, 0.004196086703687175, -0.0017729451438057199, -0.0022525061373100948, -0.00024523080671127437, -9.643484510006738e-06, 0.0005080972843392869, -0.0012933005205648994, 0.004392861083254783, 0.004338595758868648, -0.0027710326411065447, 0.007794846695981781, 0.0020183114700172895, 0.003945927897966657, -0.0018452312922071278, -0.00281091221782703, -0.0013863829359843647, -0.0029454132397236017, 0.003290729633389512, 0.0003460199040248022, -0.0012696685855364863, 0.005525518597289242, 0.00235409566291437, -0.0070831284895953705, -0.0025738602038654136, 0.0007592304304773098, 0.002479169724985311, 0.003798861001240025, 0.0008053795369110466, -0.00020514674129914763, -2.5572653195577856e-05, -0.004037337712543916, -0.0024487413355453445, -0.005385761064325398, -0.0010531504046917078, 0.004840944459878895, -0.0031761644736239816, -0.0022786509750647313, -0.0004783856952348408, -0.002711710653230393, 0.0019313676805415507, -0.0023528146471159775, -8.675124325618861e-05, 0.0006096903400222563, 0.003508903686373724, 0.003545122342253561, -0.004075798590353512, 0.0024359497173145183, 0.0032867076567704733, 0.001077400885531103, 0.0029087879216978057, -0.0009508014184892329, 0.0016871042345391332, 0.0023812760183043063, 0.0011817885541770944, 0.004291080466251474, -0.001642202614905438, -0.003190352935006519, -0.004928727365534935, 0.003077604801310158, 0.0005331703208930409, -0.0025767909683133356, 0.002051901430928108, 0.0010459431544783885, 0.003934765475093789, -0.00027733048632525524, -0.0006737628699963178, -0.0025571799937189866, 0.0001588434885774331, -0.0029739814942314753, 0.004232371686924508, -0.00020916238409297052, -0.0018593936381804332, 0.0023918917737427996, 0.0006980241625355779, 0.0007450249662174745, -0.0008877684421514863, -0.0041945259136815915, 0.003574078983063605, 0.0009428276343141938, -0.001108657374318016, 0.004796391701792881, 0.0015132028933362042, -0.011022308442241639, -0.007140073947254513, 0.0024287526515285643, -0.0022532041707573835, -0.002245424482327726, 0.0004094149729393983, 0.004464593122745727, 0.0029654572090404285, 0.0034196165927828028, 0.0017825981225273897, 0.003532733327678251, 0.0010519464341445096, -0.0003409011884849595, 0.006829686834235981, -0.0010424466082578718, 0.002094857870062616, -0.001192584133011344, -0.0016787448137629902, 0.006768045466696439, -0.0014321367802577155, -0.0013714532864264634, 0.002161633631648116, 0.0010343688918499894, -0.0027177751551324385, -0.0003316699592754948, 0.0045513481053378315, 0.0020981130836922983, -0.0026782906254593365, 0.0020117265732235786, -0.0005010565199261334, -0.003961591193798988, -8.899534956450134e-05, -0.005043100395396875, -0.0011224411633108146, -0.00493329090968174, -0.001422428032639186, -0.0028841298862441597, -0.0019757998219051645, 0.0034006778258011913, -0.006624356775838498, -0.005188829706371534, -0.0020842948711459618, -0.0016632256603281489, -0.002157824111257867, 0.0041954771809830415, -8.630124988055203e-05, -1.332618783499821e-05, -0.00574722827177524, -0.0028303939635933788, 0.0014050570737346132, -0.008259627112427182, -0.0032823888482817415, 0.0024272647878600243, -0.00151349071895604, -0.0018216052152368973, -0.008104944730008981, 1.2602655411217957e-05, 0.0001421047828458295, 0.0024756001319760582, 0.005404725943360453, 0.0035162640032277304, 0.0039553487582737, 0.003876286903838931, -0.001328046836752336, 0.004548520948169019, -0.0016986003025201983, -9.044840641110248e-05, -0.002786636251890746, 0.004610935220808413, -0.0022313142478894692, 0.0029460600872012184, -0.0006233584938516744, 0.0038079555627827948, 0.002576855402148187, -0.0023526295351542397, -0.006997970179818149, -0.0017056691169492107, -0.0022431015343866716, -0.00734832486937424, -0.002638185597704766, 0.0059143330093398274, 0.005753885632036446, 0.00689697415854093, 0.0003457572189435756, 9.113555133692523e-05, 0.0030099873173415745, -0.012570589097562923, 0.0023432194853933355, -0.004370690105000558, -0.004338110840373589, -0.005751126701852053, 0.0010356012477309995, 0.01004124529161198, -0.0043128734224026286, -0.006242592802489135, -0.004386546574943198, -0.0008532475910136233, 0.0015571990380790345, 0.011488428899385202, 0.0003175547774430406, -0.009499491771803623, -0.006436159787780307, 0.00045652127310817734, -0.002167582131272106, 0.0024084387042606317, -0.0025163397068353535, 0.007069020940756481, 0.0026059451499087587, 0.005009384609288296, 0.0028988567834066356, 0.005050224521845566, 0.002722138800709611, -0.0029776873031214074, -0.0003373395813244325, 0.004868079958142019, 0.001189014945284286, -0.007775431666397488, 0.002818416616137655, 0.00899464049766513, 0.0042826353319787925, -0.002351313001429004, -0.00032334546930684745, -0.00098211205488846, 0.001372067261424441, -0.006693998754569239, 0.0038045473670303654, 0.005224720087061491, -0.006610587558964571, 0.002554168078081297, 0.003942684892572555, -0.0008278380836921568, 0.0034484320595141397, -0.0033608541180196903, -0.0038260491173999407, -0.005290513349076647, 0.00014788082776610008, -0.0050152929175521135, 0.0017381678685409764, 0.005407913031898583, -0.007037890986244294, -0.004686015022155529, -0.005103503050988622, -0.005457300200862065, -0.0007047166345968194, 0.0014411376201731267, -0.007319959808366975, -0.0019444650836860369, -0.0024107049386152216, -0.0033639011120523673, 0.007141841423106115, -0.007859775936530818, -0.0018776297615672362, 0.008288412073400283, -0.003287921595755296, -0.0024143246701780977, -0.0025443271535174165, -0.0007718659012552848, 0.0018440815930927962, 0.00017926440758486774, -0.0018744959480487882, -1.863394774760329e-05, 0.0013586955330481922, 0.004539839576341802, 0.00032880673448278493, 0.0022511574942111856, 0.0002647803295551533, -0.0007554067585543007, 0.0037254070325130045, -0.002280590879500503, -0.004162452221886245, -0.004011514168847407, -4.355341879311683e-06, 0.0023316395882319535, 0.0020722550429634595, -0.001500446711856659, -0.001460217059306804, 0.0032420891621385796, 0.0010335155339501953, 0.0010052988072312469, 0.00030663055861302304, -0.0022786079395533915, -0.00031484832515587846, 0.0018130183961567361, 0.0047726896970240965, -0.006188614424896892, -0.00021789461689482087, -0.004915850568270187, -0.003054386321125626, -0.0011120794507223873, -0.0012204865397885277, -0.004025695561339797, 0.0007696024199493594, 0.0043406780077289795, -0.003800164302393904, -0.007336987301986016, 0.0005719502183210195, -0.0006116967207738324, 0.002817802871179226, 0.004440514460644673, -0.000547208176202471, -0.005749372874158163, -0.004451875140992115, 0.0007977733078278704, -0.0033551950100061943, 0.001487257797229326, -0.002438439743485355, 0.003448049225004723, 0.002517345616442779, 0.007223192494371745, 0.0019702131244581068, 0.005633623161058314, 0.0023070262677623676, 0.0012679997760397749, 0.0016645835397696616, 0.0023886047496962594, 0.001304368725837527, -0.005419056978294865, -0.0003220340174417603, 0.006451713170993395, -0.0007410717568670103, -0.0004054684970962497, 0.0021051102043129857, 0.00025537459367356674, -0.00031792378691257705, -0.0016445994930126399, 0.003309308824293741, 0.003950639346844642, -0.0025410874611024497, -0.000962208924920665, 0.002984514427908164, 0.0009758748045542748, -0.0010669631946379728, -0.004467841088913127, 0.0001495970950452502, 0.0008309038710013452, -0.001250782561528926, -0.0012498238709921596, 0.00046502581380850386, -0.0011934714130669567, -0.000570667382250712, -0.00231935846122613, -0.0013217883980675019, -5.1228061558601415e-05, 0.0016035401013382048, 0.0009690491335733442, -0.0012696925751877351, -0.0010340523267881986, -0.00461512067012605, -0.003046332115580624, 0.0021997117366860707, -0.002778477913125673, 0.001167443164508866, 0.0032749263780417377, -0.0023223277822207408, -0.0012432591137618463, -0.004282010354291749, -0.0025085895616203187, -0.0003301586096780955, -0.002379692278306928, -0.0005189732199501915, -0.0009423739330445019, 0.0025088546866024945, 0.0026789956573632034, -0.0029850661886206237, 0.004209539711043758, -0.0020621721752683906, -0.0019093157721686593, 0.003914205787160795, -5.176535828977372e-06, -0.00025295191081927, 0.002467744730675759, 0.0012937777441480952, -0.0012702995540718224, 0.0006420996693844236, -0.0019138805411671358, -0.0017213987839819816, 0.000900265348706367, 0.0020361262213401533, -0.002725874060418767, -0.00047654128403600167, 0.002846799044606835, 0.002769866959583686, 0.0033025522064321585, 0.0035247811083197653, -0.006411135999004676, 0.004980783497476334, -0.0053337230294259325, -0.00044819990308033077, -0.00451455455664579, -0.0065810327055761545, -0.004369677469390948, 0.0013697911249760256, 0.005276798000771686, 5.774351240806263e-05, -0.003275414749329033, 0.0022760349498090683, 0.0002918554817719159, 0.003058858710853798, 0.006373444996066941, -8.216555843965338e-05, -0.009004192962318563, -0.0070482147596330445, 0.000530366197912425, -0.0029906018345303206, -0.004118098425473626, -0.0005568057602619663, 0.005925401371626615, 0.0023518798953165556, 0.004409464867861818, 0.0016394158675630346, 0.007669386094196303, -0.00012447799346799768, -0.004631730803794073, 0.001488478029493301, 0.0013584942199039427, -0.0008233118403124897, -0.0076180738629189814, 0.00041265424561455635, 0.003874334693198962, 0.0002998679543060422, -0.002410636614450229, -0.000836292133769117, -0.0002947654531283873, 0.0006471106192934883, -0.0037509802794074574, 0.0001295760615926354, 0.0042812667401409205, -0.003947459987482429, 0.0015269625515674148, 0.0026102430997770095, 0.0011412882546343204, 0.0029372204139442508, -0.003592826284548016, -0.0019918120112758153, -0.0026130040436853578, 0.0017887628851863068, -0.0004641919892662721, -0.0004351709225186432, 0.003558302498218079, -0.001338425423277154, -0.004447200841863986, -0.0027093113612432075, -0.0018812051029559109, 0.0027017796927309673, 0.001276803571804924, -0.0013287019142706271, -0.005766697032210974, -0.0009970828121062215, -0.001423398970355698, 0.005834709459003031, -0.0026466184612360163, -0.0017773741987924863, 0.002006364484199239, -0.002284654153164805], [0.17310005949065152, 0.2857929221592539, 0.02219162497330619, -0.5337232327942167, 0.21935321069228245, -0.29232613827654885, -0.20737963293425948, 0.029035560574033416, -0.08024228617750698, -0.029568661943006055, -0.4785612259952605, 0.10219139960572252, 0.11141371399177238, 0.08136987966190272, 0.038749180533734696, -0.15387003515644868, -0.3077597296367965, -0.22990372898274872, -0.8844815492199278, -0.02974108262018642, 0.2082073362761276, -0.051092892179410175, -0.19556891791987704, 0.3644798714588049, -0.3364273069566925, 0.0009582601074156349, -0.29161757896287444, 0.05629009981068148, 0.26257327272418, -0.24056856782159058, 0.20318321703725048, 0.03610099259557725, -0.26523011817524705, 0.3169779501825713, 0.2616281401390424, 0.48830497957179275, 0.3647616356654917, -0.36765706062523273, -0.29425453161450904, 0.6360215095591133, 0.24013538080219976, 0.05574254878770731, 0.12988636486308197, -0.39669705269497685, -0.5219333250759276, 0.2188397609758542, 0.3193588141876824, 0.16278534106954137, 0.34078691542655093, 0.6487325786336852, -0.1409516187450796, -0.13775605679314032, -0.13802973835845053, 0.42005863984104963, 0.008182869663108756, -0.29074759622933005, -0.3491180826801563, -0.03770971213823232, 0.39587985440275436, 0.06172159765025537, 0.065870903442785, -0.2687426694705945, -0.6971392953197315, -0.457027658408347, 0.4153654900082061, 0.25265455147668275, 0.09959206179939857, -0.35233533258580013, 0.2808701387660793, 0.3051485145128392, 0.4324199226174745, -0.10046853689082416, -0.5807554191608327, 0.8628158173553654, -0.007446717154799378, 0.20377193131605673, 0.5875362369436525, -0.2709513976135718, -0.27884757678625355, 0.16428192414610737, -0.09268616728811158, 0.22036383177377414, -0.209330972705742, 0.005744984630056555, 0.7324886099663337, -0.21822931341751914, 0.20266811112277935, 0.37712999581314055, -0.48588329056366375, -0.34249138731023904, 0.22048052679679891, -0.141982575928698, -0.2633305533431161, -0.43150232077506284, 0.03901115897639664, -0.029084107001528338, -0.2924365384519549, -0.016673020024647142, 0.22647096195397914, -0.026692221580091408, -0.668077555909501, -0.505170657121314, 0.08397189995211662, 0.10297737808231841, 0.24619290977469513, 0.03938154542980863, 0.2850402759809981, -0.19516399750943073, 0.18380041555960897, 0.06099142774130042, 0.17602554391144123, 0.26341253988140967, 0.04177904218589936, 0.4401546272730373, -0.19642458700777854, 1.0281242691048493, 0.7255686434933653, 0.2221446787666711, -0.4397847763658918, 0.08260764801465202, 0.39702614592862584, 0.04590351194357024, 0.19628260622099386, -0.15360097037085282, 0.2899970014229984, 0.30450376402434215, -0.042551182710335624, 0.23760441533141644, -0.3029483964697467, -0.9320600429744047, 0.2800471942789112, -0.24343584132725818, 0.6025532808309368, -0.2551522130198795, 0.009736719604286714, 0.2663251302463793, 0.394884230789671, -0.028888318896958913, 0.1313161251776853, -0.056229161381508026, -0.2734595760998017, -0.03390524540990436, 0.42874535234451666, 0.08065127558067327, 0.47213302480141855, 0.07334681188850896, -0.1107949241747637, -0.49400018430012343, 0.3664635074586358, -0.13154087238340556, 0.20573881323806206, -0.8217241413548613, -0.1219865274330026, 0.14639506417426468, -0.06747404814558258, 0.5514803471234846, -0.13732054878149566, 0.23299238020964855, 0.11720288490471087, 0.6822181682229329, -0.07593826055428982, 0.14379080937968133, -0.3901274187946934, -0.5611282928096298, -0.30454638442071036, -1.0128063513715089, -0.45339019948598197, -0.6127975530050623, 0.5063984316046963, 0.12023918389068587, -0.05210726893710844, -0.0628528864125493, 0.43874029455867736, 0.7312503517163442, 0.6882904403608623, -0.30790582136144545, -0.6652011005640673, -0.6358837630014421, -0.8260761946472852, 0.22708427485815297, 0.5905550247413243, 0.2586869372666201, 0.11755105187909981, -0.09245338940017643, -0.1691294120671567, 0.22233069246757087, 0.19788337512591456, 0.08948902977829917, -0.6221514143030613, -0.018139334176875587, 0.28855248637952513, 0.08516687931061803, 0.375647839200042, 0.2723784093861258, 0.5287004772498316, -0.6772931100026195, -0.12697444167155164, -0.131912691254478, -0.10386982786625379, -0.08800969629723902, -0.13663618467442556, 1.2837571686587192, 1.1356164207318884, 1.0367264082782464, 1.524878666898806, -0.7099344520084299, -0.1770566761325227, 0.7365915847778373, -0.14823454119609228, 0.6728672872112123, -0.37587228047364135, 1.2312748391039066, 1.2054386245543125, -0.2817250494108901, -0.1873250112754935, 0.4171215671465011, 0.1684620671133908, -0.5208677798729378, 0.5955924898856298, 0.20264868146932388, 1.364502134039184, 0.23699372728351945, -0.4559472715336905, -0.14168291331070879, 0.8610224820850366, 0.44510022915332675, 0.8158504544918879, -0.1835449016357891, -1.3266984695534179, -2.401143099396196, 0.28818308241066704, -0.7576896996837342, 0.41272779245193986, -0.5242221050416269, 0.734323666289069, 1.7537811097511566, 0.11592885998419215, -1.13063443908065, 1.05800187169481, 0.3442093824171818, 1.1968238397284752, -0.6996576463660678, 0.3161282998167462, -0.38179411033202076, 0.5180501526390487, -0.280079708810871, 0.3149876559089378, -0.2780898798661802, -0.2517713513888488, 0.5012445483687276, -0.6147275253579083, 0.8942461869320606, -0.7292900800510675, 0.7292287161623885, -0.23652628366827902, 1.3778608733678026, -1.4182310747001026, 1.0311423037819063, -0.2296328696506468, -0.4156371157732769, -0.28522478403234147, -0.8355090474360859, 0.46289873822823563, 0.8749782665232304, 0.4126727151348129, 0.9560033099317051, -0.2192528948921544, -0.38525308160161703, -0.5308286305231057, 0.34285604852879525, 0.4845007804530755, -0.5197242952242763, -0.6825713129089827, 1.0797925825478116, -0.12835108631056835, -0.37192722554828694, 0.11941790447390671, -1.9715754046603922, -2.115522039573874, 0.3129173863708958, 1.0249320020192052, 0.04208467918257322, 0.45984281093601836, -0.2601557382967273, 0.48276241944451387, 1.8244694311189829, 0.12877958224938932, 0.25437124452168464, -0.9333351111823804, -1.1442480279593303, 1.3339949825793238, -0.023928402191918923, 0.8245388173128012, -0.0967621087070809, 1.301236994156295, 0.9291319713296359, 0.7683791502137833, -0.48619041365911186, -0.856975753482875, -0.674875285128988, -0.0222328089696928, -0.2166654661418271, -2.1318156831617605, -0.6239003298564574, -1.4773603852300767, -1.205985044795216, -0.11160039383637065, -0.4250376460136554, -0.21279109817553665, -0.35761308552858107, -0.14159809257569228, -0.09129742722000077, -1.1608296089649381, 0.2994910876105059, -0.22166735588827516, -0.9736192083588464, -0.048805841277278765, 1.7255564525451388, 1.082750557939009, -1.1227881631924865, -0.5646097410868186, -0.4048130961212354, 0.017431838209790357, -0.07563117213725032, 0.0646351615667482, -0.31859354631498465, -1.2153090561141584, 0.2393817489548498, -0.5933867429624573, 1.8498024467387868, -0.4077021852023822, 1.4120646977994988, 1.5918085389642822, 0.6120157748064303, -0.0567527800443358, -1.271682667222359, 0.08749459579205207, 0.7419035286442675, -1.1840415261945845, -1.6981412421425368, -0.7104829865217702, 0.31458649112750836, -1.1431823410807909, 0.3584371401421358, -0.13928733247593805, -0.6717467010951, 0.19828631535155894, -0.6639586036278604, -0.2465275552319569, -0.9472627833616099, -0.5048062940421747, -0.7571166441004739, 1.4233037377698996, -0.5512728535362609, 0.09527155155136634, -0.9650991462180394, 1.1339230063612777, 0.007103307826719579, 0.9907413680912571, 1.0484962136426217, 0.3139927785121666, 0.05648058258083989, 0.043021281776203256, -1.9943124658629396, -0.19442881382024016, -0.1358878283656256, 0.8073650348996995, 0.09930535878217644, 2.0198365399444422, -1.1423763881431346, 1.1160405177277324, 1.148025304465513, -1.192094234523991, -0.14527465844442441, -0.43686013236908905, 0.6404512666496325, 0.85018571820565, 0.8345016773790909, 1.3433867982855274, -0.4286942712343028, 0.8565101491820161, -0.3238859615964164, -0.1208792036617081, -0.23544257679190564, -0.7274429177480418, -0.39027167000366725, -0.47831763140588945, -0.017423122466920807, 1.1474750915235776, 0.8100097585287206, -0.10931649051152215, 0.24459819882734912, -2.6626081284754246, 0.4970445148699338, 0.14252839641505555, -1.481185247673411, 0.0015654107237812083, 0.1039214336107561, 0.30233507005867305, -0.8299222765664227, -0.3588460642594032, 0.43167519540209787, 0.24613012913507418, 0.0222875427961778, -0.478821513324356, -0.31264447878166995, 0.1800065625207845, 1.3039230640465613, 0.06727550310463254, -0.12162742207818, -0.9454254988808037, 0.30812657987480074, 0.18899106027639243, 0.33847967052975375, -0.3000260528959694, 0.04857193742295925, -0.015534274242186695, 0.09084641369301691, 0.1146654321172358, -0.0654112160770511, 0.07728825168206559, 0.007354490453118688, -0.16136722953121738, 0.21883310351508123, -0.2629306428179451, -0.3627090739746635, 0.4458794921548022, 0.5790646873865526, 0.1434866274671852, 0.08678391552743897, -0.13274497289220097, -0.23180926701748134, -0.23377572673902847, -0.13101505707345032, 0.01923254087986385, 0.22529046336015068, -0.6222842303125499, -0.06148702478196093, -0.4392631591187088, -0.5301099924132224, -0.9487781257611394, -0.1907220065556951, -0.6259171397134283, 0.3077503039115716, -0.04583207114494822, 0.3744190209843632, -0.4307548225077165, -0.34252116342514793, -0.3962275108191528, -0.4529292323140394, -0.24689945644591926, -0.028564526240814122, 0.4476128500442387, 0.01798580362314443, 0.4404076038521887, 0.4873258089011568, -0.21512807988231555, -0.19411594459970957, 0.2679198555531765, -0.2784705664219029, 0.5947508886260527, -0.19279922989739254, -0.03257098441204129, -0.5804198101227986, -0.6421727781004645, -0.3697913297244161, 0.5111541689645697, 0.7877492481369947, 0.2129705441920926, 0.700466670674778, 0.18338200470766586, 0.4071466707635905, -1.157238913260696, 0.0787930733893701, -0.3676028206864987, -0.23432869830379777, 0.0019184905472907118, 0.4121916502306883, 0.21922861024500376, 0.32505859169127693, 0.2970898105280769, 0.10424276996489558, -0.48386178974655775, -0.19897388502216354, 0.5759074364358553, -0.29304088236978076, 0.6317053379960094, 0.46553073016636665, -0.30724476874520973, 0.15372966697642917, -0.03793522132491151, -0.3045178541461807, -0.24980471326631273, 0.41293399955958, 0.17134472183398888, 0.6157962171086957, 0.0801491870541773, -0.2903155975359877, -0.23377257527928955, 0.20996351262386947, -0.003583259908377842, 0.27913451399904754, 0.042693930682419584, 0.1778708194627763, -0.26035490664647887, 0.1490028017461119, -0.36917541866756465, -0.16846105543246398, -0.605753398208623, -0.5298700711955519, -0.16429330479097126, 0.34757277477555176, 0.30334762802731646, 0.2963135339730002, -0.062468273221131874, -0.40898314441854583, 0.21237349884789802, 0.08336177654554186, 0.50680840645098, 0.5585509618327544, -0.14280907096005452, -0.4818824975452503, 0.08021758217318051, -0.10101246931149764, 0.08674126333413183, 0.04904300989267655, -0.9285721323865241, 0.3539849672048829, 0.14606881596335375, -0.4659856636152088, -0.2694752883334912, -0.14186662512305975, -0.29550626601193364, -0.7532182057170066, 0.33816740542601764, -0.25942911725037693, -0.3110625703237827, 0.3486694699664085, 0.47259288474428063, 0.3866953859427711, -0.0006166876339947578, 0.1588320068081159, -0.16785126650162996, -0.03955671280668083, -0.10137375537353402, 0.22540914937630452, 0.32681486421067013, 0.6294440659035044, 0.633462915411592, -0.3146589273707545, 0.14949637808367675, -0.43740659853512304, -0.4110663901615617, -0.01862278622023144, 0.28260475209165886, -0.18553537774879808, -0.16140885103901004, 0.02576581351758092, 0.45231217123751405, -0.7223450371848082, 0.03653604295779447, -0.08194135439315492, 0.041305406118289256, -0.07494589034525424, 0.02431695613568128, 0.04994801131133612, -0.09503142363708744, -0.4098822921789411, -0.16580963085877193, -0.38176371170442985, 0.1828321620811537, 0.31529600627862714, -0.22418318614272004, -0.22930870799009656, 0.2724259835915777, 0.4696993611369894, 0.17605259863684816, 0.0514596453679894, -0.15832023828697886, -0.721093077436663, 0.09522843166254003, 0.2781009030586979, 0.31834899707503633, 0.12015453517914099, 0.2664173633480406, 0.02571721597918148, -0.4948572122447841, 0.49736831640155404, 0.007882308568698967, 0.28403125045965727, 0.030458618377166673, 0.16291685400312705, 0.3328639056062286, -0.37833265341205874, -0.3052086139150188, -0.15329682638045156, 0.1925920141065848, 0.008134111610436914, 0.20234892153548564, -0.30578112727996365, -0.14194252544902267, 0.02621586298119884, 0.0386639666257269, 0.6477929936269431, -0.022576384490641515, -0.10099411969587212, -0.21150120792915608, 0.5703591829823821, -0.3150021498678317, 0.09593789058917651, 0.25225856158961724, 0.21100212406136543, 0.1664709623145207, 0.12383153985221931, -0.0037017991030838006, -0.36087129121262684, -0.059873471126801754, 0.13039580474349172, 0.17132530672938456, -0.07054913336783461, 0.22022384006570253, 0.14965053994110783, 0.03358463751881904, 0.4271561800092955, -0.132998645447635, -0.08078527472895046, -0.267846809818883, 0.49350568630426817, 0.014318262778884618, 0.20085237430539937, -0.32739239066783754, -0.0940075366607021, 0.08123965414599282, 0.19834166984007046, 0.11779656438318886, 0.1842950729254109, 0.07265570911773295, -0.1614499952658613, -0.36830606505706465, 0.04221873533842927, 0.02054674741603059, -0.21371196993625585, -0.06145681416850906, -0.06846964510720607, -0.33234622330392904, 0.22446314260550151, 0.1616611729215596, -0.27066543684783767, -0.308937824278451, 0.3214137122096504, 0.00048378373144370487, -0.14634848095730218, 0.6644762477452983, -0.3286736553318966, -0.08971480227761575, 0.10171915715642331, 0.11046254650441087, 0.1485580074964681, -0.14650994831412087, 0.40273079334005124, 0.2586912875810894, -0.30928333046477174, -0.2189315927877681, -0.06114009908630284, -0.29000598278709017, 0.23531718911060925, 0.38282033433540413, -0.3475100949540827, -0.31629828739677374, 0.19256335611966255, 0.15475844562768226, -0.19558554406242157, -0.4166812536154928, -0.12642120482164412, 0.22344480477859496, -0.04248986763718809, 0.11813004212126196, -0.3678326090754289, 0.22898947238540393, 0.07157973573557586, -0.3725513387896989, 0.04041708085639306, -0.0359383616195783, 0.5098283569299857, -0.24801687988676085, 0.17949384677602065, -0.09254702163322759, 0.3465937439096764, 0.13222665438534442, -0.013539540649773493, 0.4748321055359874, -0.12149844374265412, -0.4559590574546986, -0.005387738790778893, 0.1445709948932196, 0.20911386531706452, -0.23367067155408286, 0.08979983848704622, 0.02828673789253714, 0.05552386762721142], [-0.1614854937885036, 0.39801183988664957, 0.01824045950454788, 0.3800377635440293, 0.11517621595163664, 0.4660099337853726, -0.16880305913357346, 0.02320610221493349, -0.4031899174387219, -0.8201646077174698, 0.004288521452066806, -0.18081838402790731, 0.25319578966545375, 0.0374017307938991, 0.21738905188150956, -0.22154695968716784, -0.020101077815927945, -0.24937149494756344, 0.3299714485291293, -0.0894787823828752, 0.048793845043761885, 0.194791336717811, -0.5668435295140839, -0.07706887837412416, 0.2990441046528979, -0.1621163457325395, 0.32306477439423537, -0.48860821116368175, -0.21078919314456745, -0.13617735363335612, 0.1457245554997479, -0.37444980240592834, 0.25526773631299693, 0.06924276665949483, 0.10746001346328135, 0.05420735223098059, -0.4787425367912178, 0.22336766505815261, -0.0006577530865665047, 0.5751114098199196, -0.09366495743591763, -0.08202720201015695, -0.03007178677458783, 0.15245385120140809, -0.213635106010739, 0.1291128469850412, -0.032903476009272056, 0.13706776754014885, 0.1032030133039314, -0.23011936714748749, -0.2000130784206712, -0.3736081955162331, 0.013641647768936067, -0.06821305622230976, 0.16181925370668077, 0.20292324717798976, -0.09219595684933808, -0.1698197305734451, 0.26078527280013175, 0.020427960113419994, -0.17753100168134506, 0.41299818245994996, 0.03518366593884979, -0.3365756708203035, -0.21689239799102666, -0.4361140421919037, -0.25082030265660477, -0.31296066366821773, 0.17606092942764912, 0.06963294183925609, 0.013031725256471168, 0.11278733603775946, -0.20706523465166146, -0.5946047136847666, -0.28097990941479917, 0.3506423902221538, -0.5801876584229545, 0.18747854593212537, -0.017797245271553692, 0.04991196814776851, -0.2670269022487416, -0.2805880777183314, -0.7049632819073263, 0.12164760196236703, 0.22988200011178953, 0.19874132762253266, -0.2804278350906039, 0.12419327868679263, 0.372473782168614, -0.1868337221644105, 0.0009058640431240475, -0.17445383960380836, -0.0017530111813707974, -0.00611825929498709, -0.1530328323231958, -0.11332021249545643, -0.43176682526492055, -0.373424366065773, -0.2980730978101118, 0.11435332882958, 0.3255878708123672, -0.13072859857339242, 0.13352234925080345, 0.5461676924818398, -0.009547898122864315, -0.16033188870635354, -0.04172815897789129, 0.553222725736158, -0.49931502616444484, 0.051895033226998837, 0.07530879313903666, 0.29044899920000883, -0.10538620419718145, -0.19485006234630722, -0.013538907667494715, 0.21335368619129422, -0.004727138575911749, -0.571151058249747, 0.3958167173509121, -0.06530772170117832, -0.1634794235151443, 0.5311877067389668, 0.9023443327415798, 0.811860442521946, 0.37745270953713533, 0.029502419233630395, -0.0002850546427819229, 0.15082204247846495, -0.06188002064334225, 0.5785685715735345, -0.1857026946567313, 0.3265090236695848, 0.09000356493254648, -0.05770635593854715, -0.34794987078148115, 0.4766918294105292, -0.06860500364442482, 0.5325885849830743, -0.19294659050532312, -0.14830751108934795, -0.4697167895619108, -0.4978437793368202, 0.3873439945665404, -0.2104691542996489, -0.6819457237053751, 0.939587761434245, -0.07287718772314106, 0.03536544724049532, 0.11478634206305566, -0.2841411906545264, 0.3969920297455916, 0.15682059374866786, 0.5495997897184478, 0.30144598648166215, 0.045423659664971486, -0.473077652558189, 0.4935589862637515, -0.2555464583608423, 0.21748609357419302, -0.8927699570007616, 0.22308794984631472, -0.8758456250078558, 0.041833353004916286, 0.47148733390277164, -0.19206388511922454, -0.16246560622130363, 0.34278677589366624, 0.09837976966788341, -0.07992650067965147, -0.3808989613218145, -0.2307077367683233, 0.23116256388725812, -0.14376272702909854, -0.07453321620125188, 0.8956038317874415, -0.02277667495118833, 0.7762193851640826, -0.5051115032966117, -0.6027506554572588, -0.33200862420342503, 0.42798304688829747, 0.24944106476251107, -0.18013344772041726, -0.768469091314149, -0.17715127104261805, -0.23641922535899806, 0.6018893932640508, -0.6940735029958276, 1.2001858620408161, -0.41959205611697126, -0.5031593204878255, -0.1929616648675547, 0.4443904286516854, -0.5685637817560969, -0.391228850395452, 0.1492798787064812, 0.11270392056308999, -0.15034942648178568, 0.11288084624654214, 0.24368994278503525, 0.7257164237503372, 1.170463433601775, 1.1796387822307848, -2.06385087208666, -0.9358609071517452, 0.5889577384861334, 2.126875823246334, 1.7765082401440426, 0.15229142905392898, 1.477173298651406, -0.6984157004078232, 0.024073997792504742, 1.4492793207200723, 0.36982073998356596, -0.21367877381593284, 0.8226721762283439, 0.25103665093427424, 0.8034901102828674, -0.3098897314229046, 0.3690903564986918, -0.3390876991125598, -0.3468206466175318, 1.3309186286437875, 1.9987520261000051, 1.0334427558063892, -0.9361177599582053, -1.4991517688117109, 0.8717641119473035, -0.9892183930735415, 0.7379750040823798, 3.059167993778362, -0.31253521751130814, 1.4985112147586093, -0.7307651271144812, 0.6507634458713496, 1.2134586225403083, -0.7782214773301723, -0.33098440661659984, -1.0081857374824539, -1.3701527260388757, -0.6509041907466626, 0.8693313931536236, 2.4891082876052724, -1.0623556533710667, -0.9867709121726328, 0.8212969392395681, 1.2281087094261496, 0.6314799490464594, -0.7192020559110871, -0.9099052243609353, -0.5085794316443111, 1.3547667085014168, -1.788164109422723, 1.3549996221194716, -1.062638770191774, 1.9209452611909337, -0.9477522885152879, 1.0172274488753559, 0.28336123280900144, -0.5476682863709819, 0.11077315949179696, -0.7051574924783998, 2.3457585613459635, -1.755405196133097, -0.8055368154690017, -0.6989183124046162, 1.2366509326177664, 1.3465259151363234, 0.1868156099461808, -0.22238468412028303, -0.6642077488071112, -0.7360677736292637, -0.43163773432189634, 0.8898949290212994, 0.5915340445831251, 0.6803391768802084, 0.3903567268808171, -0.7789542965524269, 0.05438333424620411, -1.347125006377624, 1.7380333682197164, 0.7900251198966532, -0.05905052150199745, -0.25438390666690724, 0.4670994469624206, 1.9180835754173513, 1.889958902510278, -0.8278006952269304, 1.300928475381363, -0.3489384636611612, -0.352634918683937, 1.3875507035860424, -0.09561736314722606, 1.6182888608152437, 3.371083863025997, -0.7725459771460488, 0.7977780613065061, 1.4133146507717118, -0.2762116733069106, 1.3321921173204774, -0.7175891292357687, -0.3432760795266869, -0.5717217375827466, 0.47599585211791573, 1.399426694419329, 0.5769008331481672, -0.9288646048292778, -0.9604865368106275, -0.3490641509278187, -0.048906891951992874, -0.4112800486728064, 0.03454475270712306, -0.39690478923122413, -0.5213027196519724, -1.4974815933687866, 0.6887162149307875, -0.3329949435645209, 0.04398685139465692, 2.149253786725801, 0.7723786172808769, 0.6392021620884413, -0.41696761642196245, -1.1733757697646183, -0.9396650633780914, -0.737733886680684, 0.7782121805726255, -0.19160762179923668, -0.5038850110701703, 0.6918596426092894, -0.9850123353836107, -0.02075551676402691, -2.2723519623233335, -0.9250926226448422, 1.1903377412203153, -0.17574825042508005, 0.07060797218647137, 0.2547498425681016, 